tree
version=v4
num_class=1
num_tree_per_iteration=1
label_index=0
max_feature_idx=0
objective=regression
feature_names=Column_0
feature_infos=[0:787]
tree_sizes=1086 1254 1256 1173 1175 1257 1256 1175 1173 1254 1244 1250 1333 1413 1410 1489 1578 1570 1579 1568 1740 1570 1727 1573 1731 1571 1745 1655 1650 1571 1655 1564 1565 1570 1729 1572 1576 1746 1591 1585 1835 1678 1835 1756 1753 1834 1680 1678 1846 1837 1840 1849 1928 1768 1920 1926 1845 1919 1925 1763 1844 1925 1843 1841 1844 1847 1838 1847 1845 1843 1852 1770 1841 1927 1845 1770 1845 1768 1761 1853 1776 1769 1779 1785 1785 1785 1789 1790 1794 1790 1787 1791 1793 1868 1797 1879 1792 1888 1807 1886 1880 1884 1885 1890 1811 1804 1890 1802 1801 1805 1810 1806 1733 1813 1805 1896 1810 1811 1815 1720 1729 1718 1730 1805 1728 1819 1810 1732 1833 1734 1901 1734 1832 1823 1751 1904 1824 1828 1910 1827 1830 1836 1914 1825 1843 1824 1918 1836 1909 1830 1837 1836 1916 1847 1832 1921 1844 1828 1745 1746 1848 1836 1747 1744 1747 1755 1840 1749 1745 1832 1841 1829 1834 1838 1841 1759 1752 1756 1752 1840 1751 1845 1748 1755 1751 1748 1842 1756 1848 1753 1761 1765 1749 1753 1751 1836 1757 1754 1765 1758 1759 1758 1756 1753 1847 1755 1762 1835 1839 1759 1758 1762 1758 1765 1749 1851 1845 1842 1838 1837 1758 1759 1851 1760 1757 1760 1757 1756 1849 1846 1758 1856 1843 1843 1842 1757 1755 1858 1846 1761 1765 1759 1762 1855 1846 1850 1847 1843 1767 1764 1757 1846 1766 1845 1845 1852 1751 1861 1847 1852 1847 1768 1763 1850 1852 1757 1767 1756 1756 1846 1769 1766 1770 1848 1842 1763 1756 1846 1765 1764 1760 1840 1762 1769 1763 1764 1847 1839 1768 1762 1846 1859 1759 1848 1767 1848 1773 1852 1755 1851

Tree=0
num_leaves=12
num_cat=0
split_feature=0 0 0 0 0 0 0 0 0 0 0
split_gain=1.58127e+07 1.20349e+06 285837 72675.2 10385.6 7065.32 2596.98 12527.5 544.444 144.762 13.7143
threshold=463.50000000000006 617.50000000000011 87.500000000000014 30.500000000000004 582.50000000000011 129.50000000000003 243.50000000000003 213.50000000000003 659.50000000000011 418.50000000000006 553.50000000000011
decision_type=2 2 2 2 2 2 2 2 2 2 2
left_child=2 4 3 -1 10 -4 7 -7 -3 -8 -2
right_child=1 8 5 -5 -6 6 9 -9 -10 -11 -12
leaf_value=1434.5734129285056 1420.1448412637862 1412.4041001415758 1433.8948416452558 1438.2217647221789 1418.9365081370822 1433.1448416452558 1433.1448416452558 1431.716269944206 1412.1448408823164 1433.0019844842336 1420.0972222343323
leaf_weight=21 54 27 24 39 24 57 114 21 81 21 21
leaf_count=21 54 27 24 39 24 57 114 21 81 21 21
internal_value=1426.47 1415.86 1433.86 1436.94 1419.84 1433.08 1432.99 1432.76 1412.21 1433.12 1420.13
internal_weight=504 207 297 60 99 237 213 78 108 135 75
internal_count=504 207 297 60 99 237 213 78 108 135 75
is_linear=0
shrinkage=1


Tree=1
num_leaves=14
num_cat=0
split_feature=0 0 0 0 0 0 0 0 0 0 0 0 0
split_gain=1.4271e+07 1.08615e+06 257968 65589.3 9373.04 6382.31 2070.8 11711.5 491.359 130.647 12.3771 9.75194 2.32831e-10
threshold=463.50000000000006 617.50000000000011 87.500000000000014 30.500000000000004 582.50000000000011 126.50000000000001 243.50000000000003 213.50000000000003 659.50000000000011 418.50000000000006 553.50000000000011 156.50000000000003 348.50000000000006
decision_type=2 2 2 2 2 2 2 2 2 2 2 2 2
left_child=2 4 3 -1 10 -4 7 11 -3 12 -2 -7 -8
right_child=1 8 5 -5 -6 6 9 -9 -10 -11 -12 -13 -14
leaf_value=7.699900926862445 -6.0072422027587891 -13.36094594884802 7.1147818065824966 11.16583451491136 -7.1551587104797365 6.3850197201683407 6.3427577972412115 4.985615158081055 -13.607241821289064 6.207043675013951 -6.0524801345098593 6.3427577972412115 6.3427577972412115
leaf_weight=21 54 27 21 39 24 21 69 21 81 21 21 39 45
leaf_count=21 54 27 21 39 24 21 69 21 81 21 21 39 45
internal_value=-4.54131e-08 -10.078 7.02407 9.95276 -6.29512 6.28263 6.20173 6.00186 -13.5457 6.32165 -6.01991 6.35755 6.34276
internal_weight=504 207 297 60 99 237 216 81 108 135 75 60 114
internal_count=504 207 297 60 99 237 216 81 108 135 75 60 114
is_linear=0
shrinkage=0.05


Tree=2
num_leaves=14
num_cat=0
split_feature=0 0 0 0 0 0 0 0 0 0 0 0 0
split_gain=1.28796e+07 980251 232816 59194.4 8459.17 5779.63 2121.57 10193.1 443.454 117.909 11.1704 0.0174019 2.32831e-10
threshold=463.50000000000006 617.50000000000011 87.500000000000014 30.500000000000004 582.50000000000011 129.50000000000003 243.50000000000003 213.50000000000003 659.50000000000011 418.50000000000006 553.50000000000011 161.50000000000003 378.50000000000006
decision_type=2 2 2 2 2 2 2 2 2 2 2 2 2
left_child=2 4 3 -1 10 -4 7 11 -3 12 -2 -7 -8
right_child=1 8 5 -5 -6 6 9 -9 -10 -11 -12 -13 -14
leaf_value=7.3149056570870545 -5.7068798065185549 -12.692898333514179 6.7040797869364432 10.607542888934796 -6.7974010308583575 6.0238087790352957 6.0256198883056644 4.7363345009940012 -12.9268798828125 5.8966913586571108 -5.7498559860956107 6.0256198883056644 6.0256198883056644
leaf_weight=21 54 27 24 39 24 21 87 21 81 21 21 36 27
leaf_count=21 54 27 24 39 24 21 87 21 81 21 21 36 27
internal_value=-3.67089e-08 -9.57411 6.67287 9.45512 -5.98036 5.9685 5.88562 5.67802 -12.8684 6.00556 -5.71891 6.02495 6.02562
internal_weight=504 207 297 60 99 237 213 78 108 135 75 57 114
internal_count=504 207 297 60 99 237 213 78 108 135 75 57 114
is_linear=0
shrinkage=0.05


Tree=3
num_leaves=13
num_cat=0
split_feature=0 0 0 0 0 0 0 0 0 0 0 0
split_gain=1.16238e+07 884677 210116 53422.9 7634.4 5236.54 1695.02 9524.27 400.218 106.413 10.0813 6.83194
threshold=463.50000000000006 617.50000000000011 87.500000000000014 30.500000000000004 582.50000000000011 126.50000000000001 243.50000000000003 213.50000000000003 659.50000000000011 418.50000000000006 553.50000000000011 156.50000000000003
decision_type=2 2 2 2 2 2 2 2 2 2 2 2
left_child=2 4 3 -1 10 -4 7 11 -3 -8 -2 -7
right_child=1 8 5 -5 -6 6 9 -9 -10 -11 -12 -13
leaf_value=6.9491602579752616 -5.4215358734130863 -12.058253252947772 6.423838660830544 10.077165691669173 -6.4575307210286459 5.7597191946847097 5.7243389129638675 4.4995177132742752 -12.280535888671876 5.6018568311418804 -5.4623632521856402 5.7243458967942464
leaf_weight=21 54 27 21 39 24 21 114 21 81 21 21 39
leaf_count=21 54 27 21 39 24 21 114 21 81 21 21 39
internal_value=-2.72478e-08 -9.09541 6.33922 8.98236 -5.68135 5.67007 5.59679 5.41597 -12.225 5.70529 -5.43297 5.73673
internal_weight=504 207 297 60 99 237 216 81 108 135 75 60
internal_count=504 207 297 60 99 237 216 81 108 135 75 60
is_linear=0
shrinkage=0.05


Tree=4
num_leaves=13
num_cat=0
split_feature=0 0 0 0 0 0 0 0 0 0 0 0
split_gain=1.04905e+07 798421 189630 48214.2 6890.04 4727.46 1733.08 8293.95 361.195 96.0379 9.09821 0.0555853
threshold=463.50000000000006 617.50000000000011 87.500000000000014 30.500000000000004 582.50000000000011 129.50000000000003 243.50000000000003 213.50000000000003 659.50000000000011 418.50000000000006 553.50000000000011 161.50000000000003
decision_type=2 2 2 2 2 2 2 2 2 2 2 2
left_child=2 4 3 -1 10 -4 7 11 -3 -8 -2 -7
right_child=1 8 5 -5 -6 6 9 -9 -10 -11 -12 -13
leaf_value=6.6017024176461367 -5.1504592895507812 -11.455341113055194 6.0518346309661872 9.573307506854718 -6.134654219945272 5.4348849160330639 5.4381221771240238 4.2745417458670483 -11.666509246826173 5.3217642012096595 -5.189245024181548 5.4381217956542969
leaf_weight=21 54 27 24 39 24 21 114 21 81 21 21 36
leaf_count=21 54 27 24 39 24 21 114 21 81 21 21 36
internal_value=-2.34634e-08 -8.64064 6.02226 8.53325 -5.39728 5.38657 5.31161 5.12398 -11.6137 5.42002 -5.16132 5.43693
internal_weight=504 207 297 60 99 237 213 78 108 135 75 57
internal_count=504 207 297 60 99 237 213 78 108 135 75 57
is_linear=0
shrinkage=0.05


Tree=5
num_leaves=14
num_cat=0
split_feature=0 0 0 0 0 0 0 0 0 0 0 0 0
split_gain=9.46767e+06 720575 171141 43513.3 6218.26 4297.11 1387.58 7745.23 325.981 86.6743 8.21126 4.70251 9.31323e-10
threshold=463.50000000000006 617.50000000000011 87.500000000000014 30.500000000000004 582.50000000000011 126.50000000000001 243.50000000000003 213.50000000000003 659.50000000000011 418.50000000000006 553.50000000000011 156.50000000000003 722.50000000000011
decision_type=2 2 2 2 2 2 2 2 2 2 2 2 2
left_child=2 4 3 -1 10 -4 7 11 -3 -8 -2 -7 -10
right_child=1 8 5 -5 -6 6 9 -9 12 -11 -12 -13 -14
leaf_value=6.2716172354561941 -4.8929363250732427 -10.882573473895038 5.8000549679710751 9.0946423457219066 -5.8279215653737388 5.1955822717575799 5.1662158966064453 4.0608145577566965 -11.083184051513673 5.055675733657111 -4.9297830490838912 5.1662349407489492 -11.083184051513673
leaf_weight=21 54 27 21 39 24 21 114 21 42 21 21 39 39
leaf_count=21 54 27 21 39 24 21 114 21 42 21 21 39 39
internal_value=-9.65028e-08 -8.20861 5.72115 8.10658 -5.12742 5.11724 5.05086 4.88725 -11.033 5.14902 -4.90325 5.17651 -11.0832
internal_weight=504 207 297 60 99 237 216 81 108 135 75 60 81
internal_count=504 207 297 60 99 237 216 81 108 135 75 60 81
is_linear=0
shrinkage=0.05


Tree=6
num_leaves=14
num_cat=0
split_feature=0 0 0 0 0 0 0 0 0 0 0 0 0
split_gain=8.54458e+06 650319 154455 39270.8 5611.98 3878.14 1252.29 6990.07 294.196 78.2235 7.41059 4.24398 2.32831e-10
threshold=463.50000000000006 617.50000000000011 87.500000000000014 30.500000000000004 582.50000000000011 126.50000000000001 243.50000000000003 213.50000000000003 659.50000000000011 418.50000000000006 553.50000000000011 156.50000000000003 386.50000000000006
decision_type=2 2 2 2 2 2 2 2 2 2 2 2 2
left_child=2 4 3 -1 10 -4 7 11 -3 12 -2 -7 -8
right_child=1 8 5 -5 -6 6 9 -9 -10 -11 -12 -13 -14
leaf_value=5.9580363863990424 -4.6482894897460936 -10.338445055926288 5.510052217755999 8.6399098322941708 -5.5365254720052093 4.9358032953171502 4.9079051971435552 3.8577738625662672 -10.529024505615235 4.8028921308971597 -4.6832937149774461 4.9079234490027801 4.9079051971435552
leaf_weight=21 54 27 21 39 24 21 93 21 81 21 21 39 21
leaf_count=21 54 27 21 39 24 21 93 21 81 21 21 39 21
internal_value=-1.40024e-08 -7.79818 5.43509 7.70125 -4.87104 4.86138 4.79832 4.64289 -10.4814 4.89157 -4.65809 4.91768 4.90791
internal_weight=504 207 297 60 99 237 216 81 108 135 75 60 114
internal_count=504 207 297 60 99 237 216 81 108 135 75 60 114
is_linear=0
shrinkage=0.05


Tree=7
num_leaves=13
num_cat=0
split_feature=0 0 0 0 0 0 0 0 0 0 0 0
split_gain=7.71148e+06 586913 139395 35441.9 5064.81 3504.58 1281.44 6084.39 265.512 70.5968 6.68822 0.162086
threshold=463.50000000000006 617.50000000000011 87.500000000000014 30.500000000000004 582.50000000000011 129.50000000000003 243.50000000000003 213.50000000000003 659.50000000000011 418.50000000000006 553.50000000000011 161.50000000000003
decision_type=2 2 2 2 2 2 2 2 2 2 2 2
left_child=2 4 3 -1 10 -4 7 11 -3 -8 -2 -7
right_child=1 8 5 -5 -6 6 9 -9 -10 -11 -12 -13
leaf_value=5.6601347605387371 -4.4158748626708988 -9.8215230588559752 5.1911046981811531 8.2079144404484676 -5.2596989949544275 4.6569802420479913 4.6625099182128906 3.664885221208845 -10.002573394775391 4.562747410365513 -4.4491292862665084 4.6625076293945318
leaf_weight=21 54 27 24 39 24 21 114 21 81 21 21 36
leaf_count=21 54 27 24 39 24 21 114 21 81 21 21 36
internal_value=-3.86011e-08 -7.40827 5.16334 7.31619 -4.62749 4.61831 4.55377 4.39243 -9.95731 4.64699 -4.42519 4.66047
internal_weight=504 207 297 60 99 237 213 78 108 135 75 57
internal_count=504 207 297 60 99 237 213 78 108 135 75 57
is_linear=0
shrinkage=0.05


Tree=8
num_leaves=13
num_cat=0
split_feature=0 0 0 0 0 0 0 0 0 0 0 0
split_gain=6.95961e+06 529689 125804 31986.3 4570.99 3182.26 1025.12 5684.41 239.625 63.7137 6.03593 2.86979
threshold=463.50000000000006 617.50000000000011 87.500000000000014 30.500000000000004 582.50000000000011 126.50000000000001 243.50000000000003 213.50000000000003 659.50000000000011 418.50000000000006 553.50000000000011 156.50000000000003
decision_type=2 2 2 2 2 2 2 2 2 2 2 2
left_child=2 4 3 -1 10 -4 7 11 -3 -8 -2 -7
right_child=1 8 5 -5 -6 6 9 -9 -10 -11 -12 -13
leaf_value=5.377127947126116 -4.1950813293457037 -9.3304463986997259 4.9749943324497776 7.7975186274601871 -4.9967141628265388 4.4523489997500461 4.4293846130371097 3.4816408974783766 -9.5024444580078136 4.3346101987929577 -4.2266725449335008 4.4294229947603672
leaf_weight=21 54 27 21 39 24 21 114 21 81 21 21 39
leaf_count=21 54 27 21 39 24 21 114 21 81 21 21 39
internal_value=5.96046e-08 -7.03785 4.90517 6.95038 -4.39612 4.3874 4.33027 4.18965 -9.45944 4.41464 -4.20393 4.43745
internal_weight=504 207 297 60 99 237 216 81 108 135 75 60
internal_count=504 207 297 60 99 237 216 81 108 135 75 60
is_linear=0
shrinkage=0.05


Tree=9
num_leaves=14
num_cat=0
split_feature=0 0 0 0 0 0 0 0 0 0 0 0 0
split_gain=6.28105e+06 478044 113538 28867.6 4125.32 2871.99 925.172 5130.18 216.262 57.5012 5.44753 2.5899 1.16415e-10
threshold=463.50000000000006 617.50000000000011 87.500000000000014 30.500000000000004 582.50000000000011 126.50000000000001 243.50000000000003 213.50000000000003 659.50000000000011 418.50000000000006 553.50000000000011 156.50000000000003 371.50000000000006
decision_type=2 2 2 2 2 2 2 2 2 2 2 2 2
left_child=2 4 3 -1 10 -4 7 11 -3 12 -2 -7 -8
right_child=1 8 5 -5 -6 6 9 -9 -10 -11 -12 -13 -14
leaf_value=5.1082713717506048 -3.9853271484375004 -8.8639241819028509 4.726244753882999 7.4076430100661064 -4.7468785603841148 4.2297313326881048 4.2079151153564451 3.3075588498796735 -9.0273223876953121 4.1178796949840732 -4.0153390793573287 4.2079519712007967 4.2079151153564451
leaf_weight=21 54 27 21 39 24 21 81 21 81 21 21 39 33
leaf_count=21 54 27 21 39 24 21 81 21 81 21 21 39 33
internal_value=-9.8395e-09 -6.68596 4.65991 6.60286 -4.17631 4.16803 4.11375 3.98016 -8.98647 4.19391 -3.99373 4.21557 4.20792
internal_weight=504 207 297 60 99 237 216 81 108 135 75 60 114
internal_count=504 207 297 60 99 237 216 81 108 135 75 60 114
is_linear=0
shrinkage=0.05


Tree=10
num_leaves=14
num_cat=0
split_feature=0 0 0 0 0 0 0 0 0 0 0 0 0
split_gain=5.66865e+06 431435 102468 26053 3723.1 2598.62 964.15 4259.33 195.175 49.2249 4.91636 1.22793 0.263674
threshold=463.50000000000006 617.50000000000011 87.500000000000014 30.500000000000004 582.50000000000011 129.50000000000003 239.50000000000003 210.50000000000003 659.50000000000011 418.50000000000006 553.50000000000011 268.50000000000006 161.50000000000003
decision_type=2 2 2 2 2 2 2 2 2 2 2 2 2
left_child=2 4 3 -1 10 -4 7 12 -3 11 -2 -8 -7
right_child=1 8 5 -5 -6 6 9 -9 -10 -11 -12 -13 -14
leaf_value=4.8528580075218564 -3.78606071472168 -8.420728075945819 4.4528570175170898 7.0372609065129215 -4.5095345656077068 3.9903466360909601 3.9841716403052923 3.155527750651042 -8.5759559631347653 3.911985615321568 -3.8145719437372119 3.9975193023681643 3.9975135803222659
leaf_weight=21 54 27 24 39 24 21 21 21 81 21 21 96 33
leaf_count=21 54 27 24 39 24 21 21 21 81 21 21 96 33
internal_value=3.48167e-08 -6.35166 4.42692 6.27272 -3.9675 3.95962 3.90405 3.75975 -8.53715 3.98247 -3.79404 3.99512 3.99473
internal_weight=504 207 297 60 99 237 213 75 108 138 75 117 54
internal_count=504 207 297 60 99 237 213 75 108 138 75 117 54
is_linear=0
shrinkage=0.05


Tree=11
num_leaves=14
num_cat=0
split_feature=0 0 0 0 0 0 0 0 0 0 0 0 0
split_gain=5.11595e+06 389370 92477.8 23512.9 3360.1 2356.5 767.653 3992.57 176.147 44.4259 4.43702 1.66433 1.10824
threshold=463.50000000000006 617.50000000000011 87.500000000000014 30.500000000000004 582.50000000000011 126.50000000000001 239.50000000000003 210.50000000000003 659.50000000000011 418.50000000000006 553.50000000000011 156.50000000000003 268.50000000000006
decision_type=2 2 2 2 2 2 2 2 2 2 2 2 2
left_child=2 4 3 -1 10 -4 7 11 -3 12 -2 -7 -8
right_child=1 8 5 -5 -6 6 9 -9 -10 -11 -12 -13 -14
leaf_value=4.6102150826227097 -3.5967578887939453 -7.9996915464048035 4.267289770217169 6.68539780836839 -4.2840578317642217 3.8154238201323012 3.7849631899879093 2.9977514902750655 -8.1471588134765636 3.7163862500871931 -3.6238435654413133 3.7977118492126465 3.7976436614990234
leaf_weight=21 54 27 21 39 24 21 21 21 81 21 21 36 96
leaf_count=21 54 27 21 39 24 21 21 21 81 21 21 36 96
internal_value=-2.02467e-08 -6.03408 4.20557 5.95908 -3.76912 3.76164 3.71248 3.58711 -8.11029 3.78335 -3.60434 3.80424 3.79537
internal_weight=504 207 297 60 99 237 216 78 108 138 75 57 117
internal_count=504 207 297 60 99 237 216 78 108 138 75 57 117
is_linear=0
shrinkage=0.05


Tree=12
num_leaves=15
num_cat=0
split_feature=0 0 0 0 0 0 0 0 0 0 0 0 0 0
split_gain=4.61715e+06 351406 83461.2 21220.4 3032.49 2126.74 692.807 3603.3 158.97 40.0942 4.00443 1.50209 1.00019 2.91038e-11
threshold=463.50000000000006 617.50000000000011 87.500000000000014 30.500000000000004 582.50000000000011 126.50000000000001 239.50000000000003 210.50000000000003 659.50000000000011 418.50000000000006 553.50000000000011 156.50000000000003 268.50000000000006 523.50000000000011
decision_type=2 2 2 2 2 2 2 2 2 2 2 2 2 2
left_child=2 4 3 -1 10 -4 7 11 -3 12 13 -7 -8 -2
right_child=1 8 5 -5 -6 6 9 -9 -10 -11 -12 -13 -14 -15
leaf_value=4.3797043437049501 -3.4169197082519531 -7.5997075681333186 4.0539249965122774 6.3511280940129211 -4.0698548793792728 3.6246527172270278 3.5957149142310736 2.8478637695312501 -7.7398002624511726 3.5305670034317744 -3.4426511673700242 3.6078261693318687 3.6077613830566406 -3.4169197082519531
leaf_weight=21 33 27 21 39 24 21 21 21 81 21 21 36 96 21
leaf_count=21 33 27 21 39 24 21 21 21 81 21 21 36 96 21
internal_value=6.2916e-08 -5.73238 3.99529 5.66113 -3.58067 3.57356 3.52686 3.40775 -7.70478 3.59418 -3.42412 3.61403 3.6056 -3.41692
internal_weight=504 207 297 60 99 237 216 78 108 138 75 57 117 54
internal_count=504 207 297 60 99 237 216 78 108 138 75 57 117 54
is_linear=0
shrinkage=0.05


Tree=13
num_leaves=16
num_cat=0
split_feature=0 0 0 0 0 0 0 0 0 0 0 0 0 0 0
split_gain=4.16698e+06 317144 75341.5 17236.1 18224.9 2736.82 1182.74 713.241 3123.68 143.473 36.1851 3.61396 0.902613 0.35269 5.82077e-11
threshold=463.50000000000006 617.50000000000011 92.500000000000014 30.500000000000004 61.500000000000007 582.50000000000011 129.50000000000003 239.50000000000003 210.50000000000003 659.50000000000011 418.50000000000006 553.50000000000011 268.50000000000006 161.50000000000003 348.50000000000006
decision_type=2 2 2 2 2 2 2 2 2 2 2 2 2 2 2
left_child=2 5 3 -1 -5 11 -4 8 13 -3 12 -2 -9 -8 -14
right_child=1 9 6 4 -6 -7 7 10 -10 -11 -12 -13 14 -15 -16
leaf_value=4.1607191835130966 -3.2460739135742189 -7.2197217588071467 3.7403208959670295 6.9566482543945316 4.8735614594959076 -3.8663621425628665 3.4190720149448945 3.4159293674287343 2.7054706573486329 -7.3528106689453132 3.3540384655907043 -3.2705186753045945 3.4273731231689455 3.4273609161376957 3.4273731231689455
leaf_weight=21 54 27 21 21 21 24 21 21 21 81 21 21 51 33 45
leaf_count=21 54 27 21 21 21 24 21 21 21 81 21 21 51 33 45
internal_value=-6.00777e-08 -5.44576 3.79553 5.33031 5.9151 -3.40163 3.38232 3.34702 3.22291 -7.31954 3.41447 -3.25292 3.42532 3.42414 3.42737
internal_weight=504 207 297 63 42 99 234 213 75 108 138 75 117 54 96
internal_count=504 207 297 63 42 99 234 213 75 108 138 75 117 54 96
is_linear=0
shrinkage=0.05


Tree=14
num_leaves=16
num_cat=0
split_feature=0 0 0 0 0 0 0 0 0 0 0 0 0 0 0
split_gain=3.7607e+06 286223 68092.4 17321.4 2469.98 1715.39 643.701 2819.12 142.291 391.184 32.657 3.2616 0.814662 0.31829 5.82077e-11
threshold=463.50000000000006 617.50000000000011 87.500000000000014 30.500000000000004 582.50000000000011 129.50000000000003 239.50000000000003 210.50000000000003 649.50000000000011 681.50000000000011 418.50000000000006 553.50000000000011 268.50000000000006 161.50000000000003 348.50000000000006
decision_type=2 2 2 2 2 2 2 2 2 2 2 2 2 2 2
left_child=2 4 3 -1 11 -4 7 13 -3 -10 12 -2 -8 -7 -14
right_child=1 8 5 -5 -6 6 10 -9 9 -11 -12 -13 14 -15 -16
leaf_value=3.9526831672305152 -3.0837701797485355 -7.0703758421398355 3.6255619049072267 5.7338101900540863 -3.6730440378189089 3.2481185913085939 3.2451327914283392 2.5701971689860028 -6.7374057224818644 -6.9851699829101568 3.1863367341813587 -3.1069927215576172 3.2560047149658207 3.2559928894042969 3.2560047149658207
leaf_weight=21 54 21 24 39 24 21 21 21 21 66 21 21 51 33 45
leaf_count=21 54 21 24 39 24 21 21 21 21 66 21 21 51 33 45
internal_value=2.60652e-08 -5.17347 3.60575 5.11042 -3.23155 3.22482 3.17967 3.06177 -6.95356 -6.92536 3.24375 -3.09027 3.25405 3.25293 3.256
internal_weight=504 207 297 60 99 237 213 75 108 87 138 75 117 54 96
internal_count=504 207 297 60 99 237 213 75 108 87 138 75 117 54 96
is_linear=0
shrinkage=0.05


Tree=15
num_leaves=17
num_cat=0
split_feature=0 0 0 0 0 0 0 0 0 0 0 0 0 0 0 0
split_gain=3.39403e+06 258316 61472.9 14070.9 16198.6 2229.16 1065.95 4524.34 339.953 135.397 107.54 31.3241 2.94363 0.487171 0.0316825 5.82077e-11
threshold=463.50000000000006 617.50000000000011 92.500000000000014 30.500000000000004 61.500000000000007 582.50000000000011 218.50000000000003 247.50000000000003 129.50000000000003 659.50000000000011 187.50000000000003 418.50000000000006 553.50000000000011 691.50000000000011 276.50000000000006 378.50000000000006
decision_type=2 2 2 2 2 2 2 2 2 2 2 2 2 2 2 2
left_child=2 5 3 -1 -5 12 8 -8 -4 -3 -10 14 -2 -11 -9 -16
right_child=1 9 6 4 -6 -7 7 11 10 13 -12 -13 -14 -15 15 -17
leaf_value=3.755048951648531 -2.9295816421508789 -6.5089166570592809 3.3720268249511722 6.3221256256103517 4.3582515898204992 -3.4893918355305993 2.2928914206368582 3.0953611101422993 3.0891652327317463 -6.6447600228445864 3.229507310049875 3.0270199077469964 -2.9516431717645553 -6.6359115600585943 3.0932043075561526 3.0932043075561526
leaf_weight=21 54 27 21 21 21 24 21 21 39 21 21 21 21 60 63 27
leaf_count=21 54 27 21 21 21 24 21 21 39 21 21 21 21 60 63 27
internal_value=-7.6398e-09 -4.9148 3.42546 4.81181 5.34019 -3.06997 3.05222 2.97457 3.19888 -6.60588 3.13828 3.08302 -2.93576 -6.63821 3.09361 3.0932
internal_weight=504 207 297 63 42 99 234 153 81 108 60 132 75 81 111 90
internal_count=504 207 297 63 42 99 234 153 81 108 60 132 75 81 111 90
is_linear=0
shrinkage=0.05


Tree=16
num_leaves=18
num_cat=0
split_feature=0 0 0 0 0 0 0 0 0 0 0 0 0 0 0 0 0
split_gain=3.06311e+06 233130 55545.1 14135.9 2011.82 1395.03 493.293 2412.79 139.884 348.444 28.3148 2.65659 0.847449 0.00737823 9.15478e-05 6.22141e-06 2.91038e-11
threshold=463.50000000000006 617.50000000000011 87.500000000000014 30.500000000000004 582.50000000000011 126.50000000000001 239.50000000000003 210.50000000000003 649.50000000000011 681.50000000000011 418.50000000000006 553.50000000000011 156.50000000000003 268.50000000000006 712.50000000000011 302.50000000000006 386.50000000000006
decision_type=2 2 2 2 2 2 2 2 2 2 2 2 2 2 2 2 2
left_child=2 4 3 -1 11 -4 7 12 -3 -10 13 -2 -7 -8 -11 -15 -17
right_child=1 8 5 -5 -6 6 10 -9 9 14 -12 -13 -14 15 -16 16 -18
leaf_value=3.5672964947564263 -2.7831026077270509 -6.391411408923922 3.2991943359375 5.1763336475078878 -3.3149223248163859 2.9485911959693549 2.9395719982328874 2.3136624290829615 -6.0702381134033203 -6.3039896283830918 2.875668931433133 -2.8040609268915087 2.9359524726867678 2.9385132925851005 -6.3041160583496101 2.9385440826416018 2.9385440826416018
leaf_weight=21 54 21 21 39 24 21 21 21 21 21 21 21 36 21 45 54 21
leaf_count=21 54 21 21 39 24 21 21 21 21 21 21 21 36 21 45 54 21
internal_value=-4.19893e-08 -4.66906 3.25419 4.61317 -2.91647 2.91014 2.87232 2.77182 -6.27559 -6.24763 2.92913 -2.78897 2.94061 2.93872 -6.30408 2.93854 2.93854
internal_weight=504 207 297 60 99 237 216 78 108 87 138 75 57 117 66 96 75
internal_count=504 207 297 60 99 237 216 78 108 87 138 75 57 117 66 96 75
is_linear=0
shrinkage=0.05


Tree=17
num_leaves=18
num_cat=0
split_feature=0 0 0 0 0 0 0 0 0 0 0 0 0 0 0 0 0
split_gain=2.76446e+06 210400 50152.6 11485.7 14409.8 1815.66 915.178 3849.4 257.613 128.163 110.882 25.5245 2.39762 1.74772 0.0275859 1.17114e-07 9.66247e-09
threshold=463.50000000000006 617.50000000000011 92.500000000000014 30.500000000000004 61.500000000000007 582.50000000000011 218.50000000000003 247.50000000000003 129.50000000000003 659.50000000000011 187.50000000000003 418.50000000000006 553.50000000000011 691.50000000000011 276.50000000000006 722.50000000000011 311.50000000000006
decision_type=2 2 2 2 2 2 2 2 2 2 2 2 2 2 2 2 2
left_child=2 5 3 -1 -5 12 8 -8 -4 -3 -10 14 -2 -11 -9 -15 -16
right_child=1 9 6 4 -6 -7 7 11 10 13 -12 -13 -14 15 16 -17 -18
leaf_value=3.3889316747585934 -2.6439474105834964 -5.8674687844735613 3.0409701029459639 5.7472026824951179 3.8949305216471353 -3.1491761684417727 2.0536220686776296 2.7936296463012695 2.7876176834106445 -6.0056710924421042 2.930124228341239 2.7318853679157442 -2.6638580140613377 -5.9889145442417693 2.7916180474417551 -5.9889099121093752 2.7916168212890629
leaf_weight=21 54 27 21 21 21 24 21 21 39 21 21 21 21 21 21 39 69
leaf_count=21 54 27 21 21 21 24 21 21 39 21 21 21 21 21 21 39 69
internal_value=5.63524e-09 -4.4356 3.09148 4.34369 4.82107 -2.77065 2.75435 2.6824 2.89025 -5.96181 2.83749 2.78243 -2.64952 -5.99326 2.792 -5.98891 2.79162
internal_weight=504 207 297 63 42 99 234 153 81 108 60 132 75 81 111 60 90
internal_count=504 207 297 63 42 99 234 153 81 108 60 132 75 81 111 60 90
is_linear=0
shrinkage=0.05


Tree=18
num_leaves=18
num_cat=0
split_feature=0 0 0 0 0 0 0 0 0 0 0 0 0 0 0 0 0
split_gain=2.49492e+06 189886 45302.3 11533.8 1638.64 1128.32 428.621 1986.55 137.301 311.047 24.6139 2.16383 1.12593 0.905173 0.000740691 2.21051e-05 1.16415e-10
threshold=463.50000000000006 617.50000000000011 87.500000000000014 30.500000000000004 582.50000000000011 126.50000000000001 239.50000000000003 210.50000000000003 649.50000000000011 681.50000000000011 418.50000000000006 553.50000000000011 178.50000000000003 268.50000000000006 712.50000000000011 302.50000000000006 749.50000000000011
decision_type=2 2 2 2 2 2 2 2 2 2 2 2 2 2 2 2 2
left_child=2 4 3 -1 11 -4 7 12 -3 -10 13 -2 -7 -8 -11 -15 -16
right_child=1 8 5 -5 -6 6 10 -9 9 14 -12 -13 -14 15 16 -17 -18
leaf_value=3.2194850592386155 -2.5117500305175784 -5.7784673781622029 2.9760864076160249 4.6729016524094806 -2.9917173941930137 2.6570229636298288 2.6634833653767904 2.0827767780848911 -5.4684168679373606 -5.6891048976353247 2.5952911649431503 -2.5306650070917041 2.6424548830304828 2.6519780567714148 -5.6894644601004467 2.6520360946655277 -5.6894645690917969
leaf_weight=21 54 21 21 39 24 36 21 21 21 21 21 21 21 21 21 75 24
leaf_count=21 54 21 21 39 24 36 21 21 21 21 21 21 21 21 21 75 24
internal_value=1.71718e-08 -4.21382 2.93691 4.16421 -2.63212 2.6262 2.59218 2.4985 -5.66372 -5.63602 2.64513 -2.51705 2.65166 2.65408 -5.68935 2.65202 -5.68946
internal_weight=504 207 297 60 99 237 216 78 108 87 138 75 57 117 66 96 45
internal_count=504 207 297 60 99 237 216 78 108 87 138 75 57 117 66 96 45
is_linear=0
shrinkage=0.05


Tree=19
num_leaves=18
num_cat=0
split_feature=0 0 0 0 0 0 0 0 0 0 0 0 0 0 0 0 0
split_gain=2.25167e+06 171701 40917.9 9375.64 12826.3 788.071 3278.42 568.086 552.756 193.839 113.208 20.7449 3.5294 1.95288 0.015391 1.58849e-06 5.57629e-08
threshold=463.50000000000006 612.50000000000011 92.500000000000014 30.500000000000004 61.500000000000007 218.50000000000003 247.50000000000003 659.50000000000011 582.50000000000011 129.50000000000003 187.50000000000003 418.50000000000006 691.50000000000011 553.50000000000011 276.50000000000006 722.50000000000011 311.50000000000006
decision_type=2 2 2 2 2 2 2 2 2 2 2 2 2 2 2 2 2
left_child=2 8 3 -1 -5 9 -7 -3 13 -4 -11 14 -9 -2 -8 -14 -16
right_child=1 7 5 4 -6 6 11 12 -10 10 -12 -13 15 -15 16 -17 -18
leaf_value=3.058510798499698 -2.3861625671386721 -5.1564684168497728 2.7423963365100681 5.2261974334716799 3.4786589849562874 1.8385064170474099 2.5209383010864261 -5.4288139888218474 -2.681417265392485 2.5154976918147161 2.659490694318499 2.4655266080583846 -5.4050085885184158 -2.4041318802606493 2.5194372994559155 -5.4049915313720707 2.5194343566894535
leaf_weight=21 54 30 21 21 21 21 21 21 21 39 21 21 21 21 21 39 69
leaf_count=21 54 30 21 21 21 21 21 21 21 39 21 21 21 21 21 39 69
internal_value=-1.21102e-08 -4.00313 2.79006 3.92112 4.35243 2.48555 2.41878 -5.34233 -2.45468 2.61165 2.5659 2.5111 -5.41117 -2.39119 2.51972 -5.405 2.51944
internal_weight=504 207 297 63 42 234 153 111 96 81 60 132 81 75 111 60 90
internal_count=504 207 297 63 42 234 153 111 96 81 60 132 81 75 111 60 90
is_linear=0
shrinkage=0.05


Tree=20
num_leaves=20
num_cat=0
split_feature=0 0 0 0 0 0 0 0 0 0 0 0 0 0 0 0 0 0 0
split_gain=2.03213e+06 155054 36941.5 9408.42 1288.76 914.063 373.329 1633.27 146.58 273.259 21.4546 2.91505 1.76245 1.72598 0.00267005 3.86761e-05 5.23869e-10 2.91038e-11 1.45519e-11
threshold=463.50000000000006 617.50000000000011 87.500000000000014 30.500000000000004 582.50000000000011 126.50000000000001 239.50000000000003 210.50000000000003 649.50000000000011 681.50000000000011 418.50000000000006 268.50000000000006 553.50000000000011 178.50000000000003 712.50000000000011 302.50000000000006 749.50000000000011 386.50000000000006 352.50000000000006
decision_type=2 2 2 2 2 2 2 2 2 2 2 2 2 2 2 2 2 2 2
left_child=2 4 3 -1 12 -4 7 13 -3 -10 11 -8 -2 -7 -11 -13 -16 18 -17
right_child=1 8 5 -5 -6 6 10 -9 9 14 -12 15 -14 -15 16 17 -18 -19 -20
leaf_value=2.9055852980840777 -2.2668544769287111 -5.2317205519903283 2.684903244745164 4.2182745420015779 -2.6925915598869326 2.3974515067206492 2.4140113240196595 1.8749842870803108 -4.9274459293910438 -5.1340590340750563 2.3422502790178572 2.3933857781546459 -2.2839252290271577 2.3794145039149694 -5.1347416469029028 2.3934625278819692 -5.1347419738769533 2.3934625625610351 2.3934625625610351
leaf_weight=21 54 21 21 39 24 36 21 21 21 21 21 21 21 21 21 33 24 21 21
leaf_count=21 54 21 21 39 24 36 21 21 21 21 21 21 21 21 21 33 24 21 21
internal_value=-1.05964e-08 -3.80298 2.65056 3.75883 -2.37368 2.36998 2.33937 2.25193 -5.11316 -5.08454 2.38878 2.39714 -2.27163 2.39081 -5.13452 2.39345 -5.13474 2.39346 2.39346
internal_weight=504 207 297 60 99 237 216 78 108 87 138 117 75 57 66 96 45 75 54
internal_count=504 207 297 60 99 237 216 78 108 87 138 117 75 57 66 96 45 75 54
is_linear=0
shrinkage=0.05


Tree=21
num_leaves=18
num_cat=0
split_feature=0 0 0 0 0 0 0 0 0 0 0 0 0 0 0 0 0
split_gain=1.834e+06 140170 33384.6 7653.57 11423.5 680.695 2795.03 475.425 425.604 144.57 114.421 16.8109 5.6113 1.59065 0.00328769 8.97562e-06 2.06841e-07
threshold=463.50000000000006 612.50000000000011 92.500000000000014 30.500000000000004 61.500000000000007 218.50000000000003 247.50000000000003 659.50000000000011 582.50000000000011 129.50000000000003 187.50000000000003 418.50000000000006 691.50000000000011 553.50000000000011 276.50000000000006 722.50000000000011 311.50000000000006
decision_type=2 2 2 2 2 2 2 2 2 2 2 2 2 2 2 2 2
left_child=2 8 3 -1 -5 9 -7 -3 13 -4 -11 14 -9 -2 -8 -14 -16
right_child=1 7 5 4 -6 6 11 12 -10 10 -12 -13 15 -15 16 -17 -18
leaf_value=2.7603059950329012 -2.1535116195678712 -4.6527974700927741 2.4730845678420295 4.7539737701416014 3.1047649565197175 1.6451314653669085 2.2744855063302176 -4.908049283708845 -2.4127168246677946 2.2699889989999629 2.4147515433175224 2.2251377378191268 -4.8780453818184988 -2.16972903297061 2.2737950733729773 -4.8780048370361335 2.2737894058227539
leaf_weight=21 54 30 21 21 21 21 21 21 21 39 21 21 21 21 21 39 69
leaf_count=21 54 30 21 21 21 21 21 21 21 39 21 21 21 21 21 39 69
internal_value=-1.64622e-08 -3.61283 2.51803 3.53968 3.92937 2.24297 2.18092 -4.82283 -2.21376 2.36017 2.32066 2.26616 -4.8858 -2.15805 2.27392 -4.87802 2.27379
internal_weight=504 207 297 63 42 234 153 111 96 81 60 132 81 75 111 60 90
internal_count=504 207 297 63 42 234 153 111 96 81 60 132 81 75 111 60 90
is_linear=0
shrinkage=0.05


Tree=22
num_leaves=20
num_cat=0
split_feature=0 0 0 0 0 0 0 0 0 0 0 0 0 0 0 0 0 0 0
split_gain=1.65518e+06 126613 30129.6 6907.35 10309.7 1012.8 614.327 2522.51 153.609 240.929 130.474 103.265 15.1718 1.43554 0.0066651 0.00296617 1.8935e-07 3.31784e-09 1.45519e-11
threshold=463.50000000000006 617.50000000000011 92.500000000000014 30.500000000000004 61.500000000000007 582.50000000000011 218.50000000000003 247.50000000000003 649.50000000000011 681.50000000000011 129.50000000000003 187.50000000000003 418.50000000000006 553.50000000000011 712.50000000000011 276.50000000000006 311.50000000000006 749.50000000000011 378.50000000000006
decision_type=2 2 2 2 2 2 2 2 2 2 2 2 2 2 2 2 2 2 2
left_child=2 5 3 -1 -5 13 10 -8 -3 -10 -4 -12 15 -2 -11 -9 -17 -16 -18
right_child=1 8 6 4 -6 -7 7 12 9 14 11 -13 -14 -15 17 16 18 -19 -20
leaf_value=2.6222907946223306 -2.0458360671997071 -4.7374944777715777 2.3494302567981538 4.516275024414063 2.9495267868041992 -2.423325614134471 1.5628748712085543 2.1607611792428152 -4.4393175942557201 -4.6330253601074221 2.1564895483163689 2.2940140315464563 2.1138809431166878 -2.0612424759637742 -4.6341036660330639 2.1601054055350168 2.160099983215332 -4.634104537963867 2.160099983215332
leaf_weight=21 54 21 21 21 21 24 21 21 21 21 39 21 21 21 21 21 42 24 27
leaf_count=21 54 21 21 21 21 24 21 21 21 21 39 21 21 21 21 21 42 24 27
internal_value=1.99392e-08 -3.43219 2.39213 3.3627 3.7329 -2.14062 2.13082 2.07188 -4.61612 -4.58683 2.24217 2.20462 2.15285 -2.05015 -4.63376 2.16023 2.1601 -4.6341 2.1601
internal_weight=504 207 297 63 42 99 234 153 108 87 81 60 132 75 66 111 90 45 69
internal_count=504 207 297 63 42 99 234 153 108 87 81 60 132 75 66 111 90 45 69
is_linear=0
shrinkage=0.05


Tree=23
num_leaves=18
num_cat=0
split_feature=0 0 0 0 0 0 0 0 0 0 0 0 0 0 0 0 0
split_gain=1.4938e+06 114429 27208.1 6933.51 695.124 2276.57 400.242 327.144 263.68 87.1404 13.6927 7.83601 1.29556 0.0213942 0.00267645 3.25261e-05 1.67202e-07
threshold=463.50000000000006 612.50000000000011 87.500000000000014 30.500000000000004 218.50000000000003 247.50000000000003 659.50000000000011 582.50000000000011 126.50000000000001 187.50000000000003 418.50000000000006 691.50000000000011 553.50000000000011 156.50000000000003 276.50000000000006 722.50000000000011 311.50000000000006
decision_type=2 2 2 2 2 2 2 2 2 2 2 2 2 2 2 2 2
left_child=2 7 3 -1 8 -6 -3 12 -4 13 14 -8 -2 -10 -7 -13 -16
right_child=1 6 4 -5 5 10 11 -9 9 -11 -12 15 -14 -15 16 -17 -18
leaf_value=2.4911761896950857 -1.9435443878173828 -4.1978355471293138 2.3007339386712937 3.6180627676156853 1.484731167838687 2.0527230943952288 -4.43791367667062 -2.1709146408807665 2.0556989034016926 2.1793133326939174 2.0081867535909015 -4.4024763924734938 -1.9581804184686569 2.0534419468470984 2.0521001270839148 -4.4023992098294773 2.0520950317382813
leaf_weight=21 54 30 21 39 21 21 21 21 21 21 21 21 21 21 21 39 69
leaf_count=21 54 30 21 39 21 21 21 21 21 21 21 21 21 21 21 39 69
internal_value=-1.13533e-09 -3.26058 2.27252 3.22365 2.03173 1.96828 -4.35385 -1.99648 2.1473 2.09615 2.04521 -4.41163 -1.94764 2.05457 2.05221 -4.40243 2.0521
internal_weight=504 207 297 60 237 153 111 96 84 63 132 81 75 42 111 60 90
internal_count=504 207 297 60 237 153 111 96 84 63 132 81 75 42 111 60 90
is_linear=0
shrinkage=0.05


Tree=24
num_leaves=20
num_cat=0
split_feature=0 0 0 0 0 0 0 0 0 0 0 0 0 0 0 0 0 0 0
split_gain=1.34816e+06 103389 24582.4 5638.6 9187.27 795.292 496.618 2054.6 158.582 213.183 103.848 84.5046 12.3576 1.16924 0.0134802 0.00241637 1.5492e-07 1.72295e-08 1.45519e-11
threshold=463.50000000000006 617.50000000000011 92.500000000000014 30.500000000000004 61.500000000000007 582.50000000000011 218.50000000000003 247.50000000000003 649.50000000000011 681.50000000000011 129.50000000000003 187.50000000000003 418.50000000000006 553.50000000000011 712.50000000000011 276.50000000000006 311.50000000000006 749.50000000000011 378.50000000000006
decision_type=2 2 2 2 2 2 2 2 2 2 2 2 2 2 2 2 2 2 2
left_child=2 5 3 -1 -5 13 10 -8 -3 -10 -4 -12 15 -2 -11 -9 -17 -16 -18
right_child=1 8 6 4 -6 -7 7 12 9 14 11 -13 -14 -15 17 16 18 -19 -20
leaf_value=2.3666173991702855 -1.8463670730590822 -4.2907281966436477 2.1186723709106445 4.10955810546875 2.630556833176386 -2.1809454162915549 1.4104945841289702 1.9500869478498186 -3.9988858359200616 -4.1807441166469026 1.9459409126868614 2.0703476497105191 1.9077774365743001 -1.860271254039946 -4.1822772434779578 1.9494950703212195 1.9494901657104493 -4.1822792053222662 1.9494901657104493
leaf_weight=21 54 21 21 21 21 24 21 21 21 21 39 21 21 21 21 21 42 24 27
leaf_count=21 54 21 21 21 21 24 21 21 21 21 39 21 21 21 21 21 42 24 27
internal_value=-2.12874e-09 -3.09755 2.1589 3.03558 3.37006 -1.93043 1.92287 1.86987 -4.16741 -4.13764 2.02298 1.98948 1.94295 -1.85026 -4.18179 1.9496 1.94949 -4.18228 1.94949
internal_weight=504 207 297 63 42 99 234 153 108 87 81 60 132 75 66 111 90 45 69
internal_count=504 207 297 63 42 99 234 153 108 87 81 60 132 75 66 111 90 45 69
is_linear=0
shrinkage=0.05


Tree=25
num_leaves=18
num_cat=0
split_feature=0 0 0 0 0 0 0 0 0 0 0 0 0 0 0 0 0
split_gain=1.21671e+06 93415.2 22185.6 5088.83 8291.51 448.197 1854.28 339.064 251.011 93.7226 76.2652 11.1527 10.0882 1.05526 0.002181 8.97995e-05 1.39815e-07
threshold=463.50000000000006 612.50000000000011 92.500000000000014 30.500000000000004 61.500000000000007 218.50000000000003 247.50000000000003 659.50000000000011 582.50000000000011 129.50000000000003 187.50000000000003 418.50000000000006 691.50000000000011 553.50000000000011 276.50000000000006 722.50000000000011 311.50000000000006
decision_type=2 2 2 2 2 2 2 2 2 2 2 2 2 2 2 2 2
left_child=2 8 3 -1 -5 9 -7 -3 13 -4 -11 14 -9 -2 -8 -14 -16
right_child=1 7 5 4 -6 6 11 12 -10 10 -12 -13 15 -15 16 -17 -18
leaf_value=2.2482865418706619 -1.7540487289428712 -3.7868746058146159 2.01273870014009 3.9040802001953128 2.4990289506458101 1.3399698893229166 1.8525826590401786 -4.0134757450648717 -1.9533216385614303 1.8486439044658955 1.9668301718575614 1.8123886380876817 -3.9732935224260602 -1.7672578720819381 1.8520203454153881 -3.9731652773343598 1.8520156860351564
leaf_weight=21 54 30 21 21 21 21 21 21 21 39 21 21 21 21 21 39 69
leaf_count=21 54 30 21 21 21 21 21 21 21 39 21 21 21 21 21 39 69
internal_value=5.8422e-09 -2.94267 2.05095 2.8838 3.20155 1.82672 1.77637 -3.93047 -1.80053 1.92183 1.89001 1.8458 -3.98365 -1.75775 1.85212 -3.97321 1.85202
internal_weight=504 207 297 63 42 234 153 111 96 81 60 132 81 75 111 60 90
internal_count=504 207 297 63 42 234 153 111 96 81 60 132 81 75 111 60 90
is_linear=0
shrinkage=0.05


Tree=26
num_leaves=20
num_cat=0
split_feature=0 0 0 0 0 0 0 0 0 0 0 0 0 0 0 0 0 0 0
split_gain=1.09808e+06 84425.3 20032.3 5107.28 623.983 507.905 1673.49 193.439 161.717 189.294 64.8101 10.0653 0.952338 0.0237687 0.00196816 0.000287619 1.2861e-07 6.51926e-08 7.27596e-12
threshold=463.50000000000006 617.50000000000011 87.500000000000014 30.500000000000004 582.50000000000011 218.50000000000003 247.50000000000003 126.50000000000001 649.50000000000011 681.50000000000011 187.50000000000003 418.50000000000006 553.50000000000011 712.50000000000011 276.50000000000006 156.50000000000003 311.50000000000006 749.50000000000011 523.50000000000011
decision_type=2 2 2 2 2 2 2 2 2 2 2 2 2 2 2 2 2 2 2
left_child=2 4 3 -1 12 7 -7 -4 -3 -10 15 14 18 -11 -8 -9 -16 -15 -2
right_child=1 8 5 -5 -6 6 11 10 9 13 -12 -13 -14 17 16 -17 -18 -19 -20
leaf_value=2.1358721142723449 -1.6663463592529297 -3.8868479864937919 1.9719968614124117 3.1030328017014726 -1.9627723813056948 1.2729714075724283 1.7599534715924943 1.7607789448329383 -3.6015050070626398 -3.7724681854248048 1.8684887477329799 1.7217691693987167 -1.6788947968255905 -3.7745033264160157 1.7594193322317944 1.7610406330653601 1.759414863586426 -3.7745071411132813 -1.6663463592529297
leaf_weight=21 33 21 21 39 24 21 21 21 21 21 21 21 21 21 21 21 69 24 21
leaf_count=21 33 21 21 39 24 21 21 21 21 21 21 21 21 21 21 21 69 24 21
internal_value=-1.60838e-08 -2.79554 1.9484 2.76453 -1.74087 1.74179 1.68756 1.84058 -3.76231 -3.73225 1.79677 1.75351 -1.66986 -3.77386 1.75952 1.76091 1.75942 -3.77451 -1.66635
internal_weight=504 207 297 60 99 237 153 84 108 87 63 132 75 66 111 42 90 45 54
internal_count=504 207 297 60 99 237 153 84 108 87 63 132 75 66 111 42 90 45 54
is_linear=0
shrinkage=0.05


Tree=27
num_leaves=19
num_cat=0
split_feature=0 0 0 0 0 0 0 0 0 0 0 0 0 0 0 0 0 0
split_gain=991019 76260.4 18101.2 4154.16 7392.78 362.292 1510.32 289.128 192.231 74.5113 62.3932 12.2852 9.08389 0.859512 0.00177647 0.000206658 1.17856e-07 1.45519e-11
threshold=463.50000000000006 612.50000000000011 92.500000000000014 30.500000000000004 61.500000000000007 218.50000000000003 247.50000000000003 659.50000000000011 582.50000000000011 129.50000000000003 187.50000000000003 691.50000000000011 418.50000000000006 553.50000000000011 276.50000000000006 722.50000000000011 311.50000000000006 381.50000000000006
decision_type=2 2 2 2 2 2 2 2 2 2 2 2 2 2 2 2 2 2
left_child=2 8 3 -1 -5 9 -7 -3 13 -4 -11 -9 14 -2 -8 -13 -16 -18
right_child=1 7 5 4 -6 6 12 11 -10 10 -12 15 -14 -15 16 -17 17 -19
leaf_value=2.0290785710016888 -1.5830289840698244 -3.4156622123718265 1.8150106702532089 3.5537246704101566 2.2270046597435362 1.2093228044964019 1.6719558443341935 -3.6302843366350448 -1.7575170108250209 1.6681656910822942 1.7750643321446011 -3.5859764099121096 1.6356807935805548 -1.5949501855032784 1.6714484078543528 -3.5857818603515628 1.6714441299438478 1.6714441299438478
leaf_weight=21 54 30 21 21 21 21 21 21 21 39 21 21 21 21 21 39 45 24
leaf_count=21 54 30 21 21 21 21 21 21 21 39 21 21 21 21 21 39 45 24
internal_value=3.73712e-09 -2.65576 1.85098 2.60327 2.89036 1.64845 1.60318 -3.54826 -1.62381 1.73395 1.70558 -3.59737 1.66584 -1.58637 1.67154 -3.58585 1.67145 1.67144
internal_weight=504 207 297 63 42 234 153 111 96 81 60 81 132 75 111 60 90 69
internal_count=504 207 297 63 42 234 153 111 96 81 60 81 132 75 111 60 90 69
is_linear=0
shrinkage=0.05


Tree=28
num_leaves=19
num_cat=0
split_feature=0 0 0 0 0 0 0 0 0 0 0 0 0 0 0 0 0 0
split_gain=894394 68940.5 16336.3 3749.13 6671.98 489.166 326.968 1363.07 163.246 168.661 67.2465 56.3098 8.19822 0.775699 0.0380347 0.00160333 1.75962e-07 1.04017e-07
threshold=463.50000000000006 617.50000000000011 92.500000000000014 30.500000000000004 61.500000000000007 582.50000000000011 218.50000000000003 247.50000000000003 649.50000000000011 681.50000000000011 129.50000000000003 187.50000000000003 418.50000000000006 553.50000000000011 712.50000000000011 276.50000000000006 749.50000000000011 311.50000000000006
decision_type=2 2 2 2 2 2 2 2 2 2 2 2 2 2 2 2 2 2
left_child=2 5 3 -1 -5 13 10 -8 -3 -10 -4 -12 15 -2 -11 -9 -16 -17
right_child=1 8 6 4 -6 -7 7 12 9 14 11 -13 -14 -15 16 17 -18 -19
leaf_value=1.9276246275220599 -1.5038775444030763 -3.5217225120181128 1.7242601667131698 3.3760383605957034 2.1156544276646208 -1.7663944582144422 1.1488566716512045 1.5883580616542272 -3.2429816109793528 -3.4039126804896762 1.5847574013930101 1.686311067853655 1.5538967359633675 -1.5152026131039573 -3.4064863477434431 1.5878759520394463 -3.4064926147460941 1.5878719329833986
leaf_weight=21 54 21 21 21 21 24 21 21 21 21 39 21 21 21 21 21 24 69
leaf_count=21 54 21 21 21 21 24 21 21 21 21 39 21 21 21 21 21 24 69
internal_value=2.6491e-09 -2.52297 1.75843 2.47311 2.74585 -1.56992 1.56602 1.52302 -3.3966 -3.3664 1.64725 1.6203 1.58254 -1.50705 -3.40567 1.58796 -3.40649 1.58787
internal_weight=504 207 297 63 42 99 234 153 108 87 81 60 132 75 66 111 45 90
internal_count=504 207 297 63 42 99 234 153 108 87 81 60 132 75 66 111 45 90
is_linear=0
shrinkage=0.05


Tree=29
num_leaves=18
num_cat=0
split_feature=0 0 0 0 0 0 0 0 0 0 0 0 0 0 0 0 0
split_gain=807191 62263.4 14743.5 3383.59 6021.47 1786.2 462.559 295.089 1230.17 60.6899 50.8196 8.84142 7.39893 0.700075 0.00144692 0.000257579 9.43983e-08
threshold=463.50000000000006 630.50000000000011 92.500000000000014 30.500000000000004 61.500000000000007 582.50000000000011 663.50000000000011 218.50000000000003 247.50000000000003 129.50000000000003 187.50000000000003 695.50000000000011 418.50000000000006 553.50000000000011 276.50000000000006 729.50000000000011 311.50000000000006
decision_type=2 2 2 2 2 2 2 2 2 2 2 2 2 2 2 2 2
left_child=2 5 3 -1 -5 13 -3 9 -9 -4 -11 -8 14 -2 -10 -13 -16
right_child=1 6 7 4 -6 -7 11 8 12 10 -12 15 -14 -15 16 -17 -18
leaf_value=1.8312433606102354 -1.4286836624145509 -3.5108382088797434 1.6380471002487909 3.2072364807128908 2.0098717099144348 -1.8731239930246817 -3.2742010389055523 1.0914138180868966 1.5089401653834753 1.5055195514972395 1.6019955226353237 -3.2363885062081472 1.4762018476213727 -1.4394425255911691 1.5084821837288995 -3.2361681620279947 1.508478355407715
leaf_weight=21 54 21 21 21 21 33 21 21 21 39 21 21 21 21 21 36 69
leaf_count=21 54 21 21 21 21 33 21 21 21 39 21 21 21 21 21 36 69
internal_value=1.14183e-08 -2.39682 1.67051 2.34945 2.60855 -1.56658 -3.30255 1.48772 1.44687 1.56489 1.53929 -3.24647 1.50342 -1.4317 1.50857 -3.23625 1.50848
internal_weight=504 207 297 63 42 108 99 234 153 81 60 78 132 75 111 57 90
internal_count=504 207 297 63 42 108 99 234 153 81 60 78 132 75 111 57 90
is_linear=0
shrinkage=0.05


Tree=30
num_leaves=19
num_cat=0
split_feature=0 0 0 0 0 0 0 0 0 0 0 0 0 0 0 0 0 0
split_gain=728490 56591.5 13313.9 3396.24 334.635 1110.23 192.695 129.203 106.772 43.8107 12.357 6.67753 0.631815 0.0441065 0.00130584 1.39815e-07 8.20437e-08 7.27596e-12
threshold=463.50000000000006 612.50000000000011 87.500000000000014 30.500000000000004 218.50000000000003 247.50000000000003 659.50000000000011 126.50000000000001 582.50000000000011 187.50000000000003 691.50000000000011 418.50000000000006 553.50000000000011 156.50000000000003 276.50000000000006 729.50000000000011 311.50000000000006 381.50000000000006
decision_type=2 2 2 2 2 2 2 2 2 2 2 2 2 2 2 2 2 2
left_child=2 8 3 -1 7 -6 -3 -4 12 13 -8 14 -2 -9 -7 -12 -16 -18
right_child=1 6 4 -5 5 11 10 9 -10 -11 15 -13 -14 -15 16 -17 17 -19
leaf_value=1.7396812711443221 -1.3572494506835939 -2.9375694553057357 1.6061367216564362 2.5283650031456584 1.0368431409200034 1.433493150983538 -3.1189217703683036 1.4318258739653089 -1.4876651673089891 1.5218957764761789 -3.0743548393249513 1.4023917470659528 -1.3674703507196337 1.4350664819989887 1.4330580166407996 -3.0743597666422531 1.4330544471740723 1.4330544471740723
leaf_weight=21 54 30 21 39 21 21 21 21 21 21 24 21 21 21 21 36 45 24
leaf_count=21 54 30 21 39 21 21 21 21 21 21 24 21 21 21 21 36 45 24
internal_value=5.91316e-09 -2.27698 1.58699 2.25233 1.41855 1.37452 -3.04582 1.49873 -1.38801 1.46293 -3.08591 1.42825 -1.36011 1.43345 1.43314 -3.07436 1.43306 1.43305
internal_weight=504 207 297 60 237 153 111 84 96 63 81 132 75 42 111 60 90 69
internal_count=504 207 297 60 237 153 111 84 96 63 81 132 75 42 111 60 90 69
is_linear=0
shrinkage=0.05


Tree=31
num_leaves=18
num_cat=0
split_feature=0 0 0 0 0 0 0 0 0 0 0 0 0 0 0 0 0
split_gain=657462 51202 12029.1 2762.1 5371.62 1370.17 437.842 238.526 1001.98 48.1689 41.5512 7.15644 6.02647 0.57021 0.00117819 0.000232909 7.23376e-08
threshold=463.50000000000006 630.50000000000011 92.500000000000014 30.500000000000004 61.500000000000007 582.50000000000011 663.50000000000011 218.50000000000003 247.50000000000003 129.50000000000003 187.50000000000003 695.50000000000011 418.50000000000006 553.50000000000011 276.50000000000006 729.50000000000011 311.50000000000006
decision_type=2 2 2 2 2 2 2 2 2 2 2 2 2 2 2 2 2
left_child=2 5 3 -1 -5 13 -3 9 -9 -4 -11 -8 14 -2 -10 -13 -16
right_child=1 6 7 4 -6 -7 11 8 12 10 -12 15 -14 -15 16 -17 -18
leaf_value=1.6526971362885974 -1.2893870353698731 -3.1871225720360168 1.4770830063592821 2.9204565048217774 1.7895471482049849 -1.6787227016506774 -2.9548633030482705 0.98500096343812482 1.361818449837821 1.3585650297311638 1.4458009583609446 -2.9208512987409319 1.3322721753801618 -1.2990968613397509 1.361405100141253 -2.9206417719523117 1.3614017486572267
leaf_weight=21 54 21 21 21 21 33 21 21 21 39 21 21 21 21 21 36 69
leaf_count=21 54 21 21 21 21 33 21 21 21 39 21 21 21 21 21 36 69
internal_value=-9.46105e-10 -2.16313 1.50764 2.1209 2.355 -1.41024 -2.98447 1.34253 1.3058 1.41191 1.3891 -2.92991 1.35683 -1.29211 1.36148 -2.92072 1.3614
internal_weight=504 207 297 63 42 108 99 234 153 81 60 78 132 75 111 57 90
internal_count=504 207 297 63 42 108 99 234 153 81 60 78 132 75 111 57 90
is_linear=0
shrinkage=0.05


Tree=32
num_leaves=18
num_cat=0
split_feature=0 0 0 0 0 0 0 0 0 0 0 0 0 0 0 0 0
split_gain=593360 46428.3 10856.3 2492.79 4847.88 215.27 904.286 132.785 68.0694 43.4725 37.5 9.49063 5.43887 0.514623 0.00106347 0.000357223 6.82776e-08
threshold=463.50000000000006 612.50000000000011 92.500000000000014 30.500000000000004 61.500000000000007 218.50000000000003 247.50000000000003 659.50000000000011 582.50000000000011 129.50000000000003 187.50000000000003 691.50000000000011 418.50000000000006 553.50000000000011 276.50000000000006 722.50000000000011 311.50000000000006
decision_type=2 2 2 2 2 2 2 2 2 2 2 2 2 2 2 2 2
left_child=2 8 3 -1 -5 9 -7 -3 13 -4 -11 -9 14 -2 -8 -13 -16
right_child=1 7 5 4 -6 6 12 11 -10 10 -12 15 -14 -15 16 -17 -18
leaf_value=1.5700623648507257 -1.2249176025390627 -2.6615027856826785 1.4032288960048132 2.774433517456055 1.700069790794736 0.93575093178522017 1.2937275341578893 -2.813573455810547 -1.3293458257402693 1.2906367522019606 1.3735109192984445 -2.7743523733956472 1.2656585965837752 -1.2341420128231957 1.2933348791939874 -2.774608157231258 1.2933316230773926
leaf_weight=21 54 30 21 21 21 21 21 21 21 39 21 21 21 21 21 39 69
leaf_count=21 54 30 21 21 21 21 21 21 21 39 21 21 21 21 21 39 69
internal_value=4.16286e-09 -2.05498 1.43226 2.01486 2.23725 1.2754 1.24051 -2.75136 -1.24978 1.34131 1.31964 -2.78464 1.28899 -1.2275 1.29341 -2.77452 1.29333
internal_weight=504 207 297 63 42 234 153 111 96 81 60 81 132 75 111 60 90
internal_count=504 207 297 63 42 234 153 111 96 81 60 81 132 75 111 60 90
is_linear=0
shrinkage=0.05


Tree=33
num_leaves=18
num_cat=0
split_feature=0 0 0 0 0 0 0 0 0 0 0 0 0 0 0 0 0
split_gain=535507 42116 9797.79 2249.75 4375.21 1047.07 411.54 194.281 816.118 39.2339 33.8437 5.80993 4.9086 0.464439 0.000959607 0.000234081 6.05141e-08
threshold=463.50000000000006 630.50000000000011 92.500000000000014 30.500000000000004 61.500000000000007 582.50000000000011 663.50000000000011 218.50000000000003 247.50000000000003 129.50000000000003 187.50000000000003 695.50000000000011 418.50000000000006 553.50000000000011 276.50000000000006 729.50000000000011 311.50000000000006
decision_type=2 2 2 2 2 2 2 2 2 2 2 2 2 2 2 2 2
left_child=2 5 3 -1 -5 13 -3 9 -9 -4 -11 -8 14 -2 -10 -13 -16
right_child=1 6 7 4 -6 -7 11 8 12 10 -12 15 -14 -15 16 -17 -18
leaf_value=1.4915592466081893 -1.1636717796325684 -2.8936051050821945 1.333067458016532 2.6357118606567385 1.6150663262321836 -1.5040981552817607 -2.6667216164725169 0.88896338372003469 1.2290411404200965 1.2261049197270322 1.304835319519043 -2.6360893794468474 1.2023756299700057 -1.1724348976498558 1.2286681311471124 -2.6358793258666995 1.228665065765381
leaf_weight=21 54 21 21 21 21 33 21 21 21 39 21 21 21 21 21 36 69
leaf_count=21 54 21 21 21 21 33 21 21 21 39 21 21 21 21 21 36 69
internal_value=-4.16286e-09 -1.95223 1.36064 1.91411 2.12539 -1.26939 -2.69714 1.21163 1.17848 1.27425 1.25366 -2.64424 1.22454 -1.16613 1.22874 -2.63596 1.22867
internal_weight=504 207 297 63 42 108 99 234 153 81 60 78 132 75 111 57 90
internal_count=504 207 297 63 42 108 99 234 153 81 60 78 132 75 111 57 90
is_linear=0
shrinkage=0.05


Tree=34
num_leaves=20
num_cat=0
split_feature=0 0 0 0 0 0 0 0 0 0 0 0 0 0 0 0 0 0 0
split_gain=483295 38091.2 8843.12 2256.59 221.003 736.546 174.152 293.99 87.319 41.8472 29.673 4.43002 0.41916 0.126745 0.0495447 0.000866167 6.79416e-06 5.32091e-08 7.27596e-12
threshold=463.50000000000006 612.50000000000011 87.500000000000014 30.500000000000004 218.50000000000003 247.50000000000003 643.50000000000011 678.00000000000011 126.50000000000001 582.50000000000011 187.50000000000003 418.50000000000006 553.50000000000011 156.50000000000003 708.50000000000011 276.50000000000006 744.50000000000011 311.50000000000006 378.50000000000006
decision_type=2 2 2 2 2 2 2 2 2 2 2 2 2 2 2 2 2 2 2
left_child=2 9 3 -1 8 -6 -3 -8 -4 12 13 15 -2 -10 -9 -7 -16 -17 -19
right_child=1 6 4 -5 5 11 7 14 10 -11 -12 -13 -14 -15 16 17 -18 18 -20
leaf_value=1.4169812338692802 -1.1054882049560548 -2.6150401705787298 1.3087944927669708 2.0598609630878157 0.84451521294457577 1.1675891331263952 -2.2913280032929921 -2.5070136206490652 1.1640544255574545 -1.1876735715639024 1.2395936012268067 1.1422568548293341 -1.113813200451079 1.1695478303091866 -2.5041231427873889 1.167234720502581 -2.5040852228800459 1.1672318458557129 1.1672318458557129
leaf_weight=21 54 21 21 39 21 21 21 21 21 21 21 21 21 21 21 21 27 42 27
leaf_count=21 54 21 21 39 21 21 21 21 21 21 21 21 21 21 21 21 27 42 27
internal_value=5.06166e-09 -1.85462 1.29261 1.83485 1.15533 1.11956 -2.48539 -2.45513 1.2205 -1.12529 1.19107 1.16332 -1.10782 1.1668 -2.50499 1.1673 -2.5041 1.16723 1.16723
internal_weight=504 207 297 60 237 153 111 90 84 96 63 132 75 42 69 111 48 90 69
internal_count=504 207 297 60 237 153 111 90 84 96 63 132 75 42 69 111 48 90 69
is_linear=0
shrinkage=0.05


Tree=35
num_leaves=18
num_cat=0
split_feature=0 0 0 0 0 0 0 0 0 0 0 0 0 0 0 0 0
split_gain=436174 34777.9 8154.33 4672.94 908.466 776.932 379.338 157.02 664.733 31.059 27.6518 6.98211 3.9981 0.378298 0.000781805 9.83732e-05 4.97457e-08
threshold=463.50000000000006 630.50000000000011 61.500000000000007 30.500000000000004 92.500000000000014 582.50000000000011 663.50000000000011 218.50000000000003 247.50000000000003 129.50000000000003 187.50000000000003 695.50000000000011 418.50000000000006 553.50000000000011 276.50000000000006 729.50000000000011 311.50000000000006
decision_type=2 2 2 2 2 2 2 2 2 2 2 2 2 2 2 2 2
left_child=2 5 3 -1 -4 13 -3 9 -9 -6 -11 -8 14 -2 -10 -13 -16
right_child=1 6 4 -5 7 -7 11 8 12 10 -12 15 -14 -15 16 -17 -18
leaf_value=1.3461321240379698 -1.0502137184143068 -2.6274217514764695 1.4366847498076303 2.4009332656860352 1.2020081792558943 -1.3435574941562884 -2.412656675066267 0.80228944278898706 1.1092096737452917 1.1064490465017467 1.1776139259338378 -2.379016767229353 1.0851439793904623 -1.0581225258963449 1.1088729994637627 -2.3788805961608888 1.1088702201843261
leaf_weight=21 54 21 21 21 21 33 21 21 21 39 21 21 21 21 21 36 69
leaf_count=21 54 21 21 21 21 33 21 21 21 39 21 21 21 21 21 36 69
internal_value=2.9211e-09 -1.76189 1.22798 1.87353 1.12165 -1.14138 -2.43879 1.09338 1.06358 1.14967 1.13136 -2.38801 1.10515 -1.05243 1.10893 -2.37893 1.10887
internal_weight=504 207 297 42 255 108 99 234 153 81 60 78 132 75 111 57 90
internal_count=504 207 297 42 255 108 99 234 153 81 60 78 132 75 111 57 90
is_linear=0
shrinkage=0.05


Tree=36
num_leaves=18
num_cat=0
split_feature=0 0 0 0 0 0 0 0 0 0 0 0 0 0 0 0 0
split_gain=393647 31387.1 7359.28 4217.33 819.891 701.181 342.352 141.71 599.922 28.0307 24.9558 6.30135 3.60829 0.34141 0.00070562 8.87023e-05 4.31537e-08
threshold=463.50000000000006 630.50000000000011 61.500000000000007 30.500000000000004 92.500000000000014 582.50000000000011 663.50000000000011 218.50000000000003 247.50000000000003 129.50000000000003 187.50000000000003 695.50000000000011 418.50000000000006 553.50000000000011 276.50000000000006 729.50000000000011 311.50000000000006
decision_type=2 2 2 2 2 2 2 2 2 2 2 2 2 2 2 2 2
left_child=2 5 3 -1 -4 13 -3 9 -9 -6 -11 -8 14 -2 -10 -13 -16
right_child=1 6 4 -5 7 -7 11 8 12 10 -12 15 -14 -15 16 -17 -18
leaf_value=1.2788255237397694 -0.99770307540893555 -2.4960505894252236 1.3648505621013189 2.2808866500854492 1.1419077555338542 -1.2763796250025432 -2.2920238494873049 0.76217498892829538 1.0537492207118444 1.0511265901418834 1.1187332017081124 -2.2600659234183178 1.0308867772420249 -1.0052163986932665 1.0534293310982841 -2.2599366188049319 1.0534267425537109
leaf_weight=21 54 21 21 21 21 33 21 21 21 39 21 21 21 21 21 36 69
leaf_count=21 54 21 21 21 21 33 21 21 21 39 21 21 21 21 21 36 69
internal_value=5.02027e-09 -1.67379 1.16658 1.77986 1.06557 -1.08432 -2.31686 1.03871 1.0104 1.09219 1.07479 -2.26861 1.04989 -0.999807 1.05349 -2.25998 1.05343
internal_weight=504 207 297 42 255 108 99 234 153 81 60 78 132 75 111 57 90
internal_count=504 207 297 42 255 108 99 234 153 81 60 78 132 75 111 57 90
is_linear=0
shrinkage=0.05


Tree=37
num_leaves=20
num_cat=0
split_feature=0 0 0 0 0 0 0 0 0 0 0 0 0 0 0 0 0 0 0
split_gain=355266 28413.2 6641.75 3806.14 739.951 281.249 305.097 127.894 541.429 25.2978 22.5226 14.7921 3.25646 0.308124 0.00454561 0.00063642 3.80648e-06 4.0025e-08 3.63798e-12
threshold=463.50000000000006 612.50000000000011 61.500000000000007 30.500000000000004 92.500000000000014 643.50000000000011 678.00000000000011 218.50000000000003 247.50000000000003 129.50000000000003 187.50000000000003 582.50000000000011 418.50000000000006 553.50000000000011 708.50000000000011 276.50000000000006 744.50000000000011 311.50000000000006 378.50000000000006
decision_type=2 2 2 2 2 2 2 2 2 2 2 2 2 2 2 2 2 2 2
left_child=2 11 3 -1 -4 -3 -7 9 -9 -6 -11 13 15 -2 -8 -10 -16 -17 -19
right_child=1 5 4 -5 7 6 14 8 12 10 -12 -13 -14 -15 16 17 -18 18 -20
leaf_value=1.2148842947823661 -0.94781789779663095 -2.2996442068190803 1.2966080097925097 2.1668422698974612 1.0848123959132605 -1.9295620782034739 -2.1478345053536549 0.72406623732476005 1.00106167112078 0.99857026613675637 1.0627965790884835 -0.99729307379041399 0.97934248788016187 -0.95495557330903547 -2.1469684873308457 1.0007578986031669 -2.1469401041666667 1.0007554054260255 1.0007554054260255
leaf_weight=21 54 21 21 21 21 21 21 21 21 39 21 21 21 21 21 21 27 42 27
leaf_count=21 54 21 21 21 21 21 21 21 21 39 21 21 21 21 21 21 27 42 27
internal_value=1.26423e-08 -1.5901 1.10825 1.69086 1.01229 -2.13488 -2.09643 0.986778 0.959882 1.03758 1.02105 -0.960202 0.997398 -0.949816 -2.14722 1.00081 -2.14695 1.00076 1.00076
internal_weight=504 207 297 42 255 111 90 234 153 81 60 96 132 75 69 111 48 90 69
internal_count=504 207 297 42 255 111 90 234 153 81 60 96 132 75 69 111 48 90 69
is_linear=0
shrinkage=0.05


Tree=38
num_leaves=18
num_cat=0
split_feature=0 0 0 0 0 0 0 0 0 0 0 0 0 0 0 0 0
split_gain=320628 25945.7 5994.18 3435.04 667.806 513.542 313.846 115.424 488.64 22.8312 20.3266 7.55307 2.93896 0.278076 0.00057491 5.66429e-05 3.7875e-08
threshold=463.50000000000006 630.50000000000011 61.500000000000007 30.500000000000004 92.500000000000014 582.50000000000011 663.50000000000011 218.50000000000003 247.50000000000003 129.50000000000003 187.50000000000003 695.50000000000011 418.50000000000006 553.50000000000011 276.50000000000006 729.50000000000011 311.50000000000006
decision_type=2 2 2 2 2 2 2 2 2 2 2 2 2 2 2 2 2
left_child=2 5 3 -1 -4 13 -3 9 -9 -6 -11 -8 14 -2 -10 -13 -16
right_child=1 6 4 -5 7 -7 11 8 12 10 -12 15 -14 -15 16 -17 -18
leaf_value=1.1541401181902204 -0.90042705535888679 -2.2668396904355004 1.2317776112329393 2.0585000991821292 1.0305717559087844 -1.1390168507893881 -2.0747081756591799 0.68786292218026668 0.95100864682878772 0.94864176970261804 1.0096567017691476 -2.0396956580025809 0.9303753171648298 -0.90720777057466051 0.95071996961321159 -2.0395923296610516 0.95071754455566415
leaf_weight=21 54 21 21 21 21 33 21 21 21 39 21 21 21 21 21 36 69
leaf_count=21 54 21 21 21 21 33 21 21 21 39 21 21 21 21 21 36 69
internal_value=-5.04984e-09 -1.5106 1.05284 1.60632 0.961678 -0.974648 -2.09527 0.937439 0.911888 0.985702 0.969997 -2.04907 0.947528 -0.902326 0.950773 -2.03963 0.950718
internal_weight=504 207 297 42 255 108 99 234 153 81 60 78 132 75 111 57 90
internal_count=504 207 297 42 255 108 99 234 153 81 60 78 132 75 111 57 90
is_linear=0
shrinkage=0.05


Tree=39
num_leaves=18
num_cat=0
split_feature=0 0 0 0 0 0 0 0 0 0 0 0 0 0 0 0 0
split_gain=289367 23416 5409.75 3100.13 602.695 463.471 283.245 113.51 405.894 122.208 33.077 6.81667 2.56258 0.250964 0.000249577 5.11375e-05 6.82849e-09
threshold=463.50000000000006 630.50000000000011 61.500000000000007 30.500000000000004 92.500000000000014 582.50000000000011 663.50000000000011 239.50000000000003 187.50000000000003 268.50000000000006 129.50000000000003 695.50000000000011 418.50000000000006 553.50000000000011 302.50000000000006 729.50000000000011 336.50000000000006
decision_type=2 2 2 2 2 2 2 2 2 2 2 2 2 2 2 2 2
left_child=2 5 3 -1 -4 13 -3 8 10 -9 -6 -8 14 -2 -11 -13 -16
right_child=1 6 4 -5 7 -7 11 9 -10 12 -12 15 -14 -15 16 -17 -18
leaf_value=1.0964330673217775 -0.85540571212768557 -2.1534976323445636 1.1701887403215681 1.9555751800537111 0.97904315221877336 -1.0820660240722426 -1.970972796848842 1.0306736675046739 0.71608532137340974 0.90298643112182619 0.90120965517484231 -1.9377108710152762 0.88385660988943915 -0.86184739612397687 0.90318068095615933 -1.9376126925150556 0.90318174362182624
leaf_weight=21 54 21 21 21 21 33 21 21 36 21 39 21 21 21 21 36 54
leaf_count=21 54 21 21 21 21 33 21 21 36 21 39 21 21 21 21 36 54
internal_value=7.12536e-09 -1.43507 1.0002 1.526 0.913594 -0.925916 -1.9905 0.890567 0.848814 0.919612 0.928451 -1.94662 0.899678 -0.857209 0.903139 -1.93765 0.903181
internal_weight=504 207 297 42 255 108 99 234 96 138 60 78 117 75 96 57 75
internal_count=504 207 297 42 255 108 99 234 96 138 60 78 117 75 96 57 75
is_linear=0
shrinkage=0.05


Tree=40
num_leaves=21
num_cat=0
split_feature=0 0 0 0 0 0 0 0 0 0 0 0 0 0 0 0 0 0 0 0
split_gain=261153 21203.6 4882.3 2797.86 543.932 384.122 312.563 110.978 431.139 24.8236 36.3777 4.26332 2.2003 0.186464 0.135114 0.0809154 0.00733494 2.13795e-06 3.31904e-07 1.81899e-11
threshold=463.50000000000006 612.50000000000011 61.500000000000007 30.500000000000004 92.500000000000014 643.50000000000011 678.00000000000011 222.50000000000003 252.50000000000003 191.50000000000003 129.50000000000003 558.00000000000011 418.50000000000006 527.50000000000011 161.50000000000003 281.50000000000006 708.50000000000011 744.50000000000011 316.50000000000006 348.50000000000006
decision_type=2 2 2 2 2 2 2 2 2 2 2 2 2 2 2 2 2 2 2 2
left_child=2 11 3 -1 -4 -3 -7 9 -9 10 -6 13 15 -2 -12 -10 -8 -18 -17 -20
right_child=1 5 4 -5 7 6 16 8 12 -11 14 -13 -14 -15 -16 18 17 -19 19 -21
leaf_value=1.0416114829835439 -0.81263542175292969 -2.0264809472220287 1.1116792951311385 1.8577964782714844 0.93009099052065902 -1.6200954800560361 -1.8396217618669786 0.61017464314188274 0.85456632886614126 0.93913051060267871 0.85232906341552739 -0.83190531914050769 0.83966372353690011 -0.80670693261282789 0.84665720122201105 0.8580298287527901 -1.8407541002546037 -1.8407328287760418 0.85802264894757951 0.85802259445190432
leaf_weight=21 36 21 21 21 21 21 21 21 21 21 21 39 21 21 21 21 21 27 21 45
leaf_count=21 36 21 21 21 21 21 21 21 21 21 21 39 21 21 21 21 21 27 21 45
internal_value=3.66616e-10 -1.36331 0.950188 1.4497 0.867915 -1.83393 -1.789 0.846038 0.820271 0.892052 0.876359 -0.819167 0.854472 -0.810451 0.849493 0.857352 -1.8404 -1.84074 0.858024 0.858023
internal_weight=504 207 297 42 255 111 90 234 150 84 63 96 129 57 42 108 69 48 87 66
internal_count=504 207 297 42 255 111 90 234 150 84 63 96 129 57 42 108 69 48 87 66
is_linear=0
shrinkage=0.05


Tree=41
num_leaves=19
num_cat=0
split_feature=0 0 0 0 0 0 0 0 0 0 0 0 0 0 0 0 0 0
split_gain=235691 19379.5 4406.27 2525.07 490.899 334.686 258.331 105.246 356.209 119.762 26.695 8.13724 2.09061 0.165895 0.000331442 8.12318e-05 7.20947e-05 7.36327e-09
threshold=463.50000000000006 630.50000000000011 61.500000000000007 30.500000000000004 92.500000000000014 582.50000000000011 663.50000000000011 239.50000000000003 187.50000000000003 268.50000000000006 129.50000000000003 695.50000000000011 418.50000000000006 553.50000000000011 523.50000000000011 302.50000000000006 729.50000000000011 336.50000000000006
decision_type=2 2 2 2 2 2 2 2 2 2 2 2 2 2 2 2 2 2
left_child=2 5 3 -1 -4 13 -3 8 10 -9 -6 -8 15 14 -2 -11 -13 -17
right_child=1 6 4 -5 7 -7 11 9 -10 12 -12 16 -14 -15 -16 17 -18 -19
leaf_value=0.98953079041980563 -0.77200360298156745 -1.9561097553798132 1.0560953412737166 1.7649065017700196 0.88358645212082632 -0.96464789491711245 -1.7851471764700755 0.94164866492861798 0.6391924301783245 0.8150098936898369 0.81366362938514125 -1.7488118035452709 0.79768059140159975 -0.77733975819178991 -0.77225770269121441 0.81512035642351433 -1.7486952304840089 0.81512145996093754
leaf_weight=21 33 21 21 21 21 33 21 21 36 21 39 21 21 21 21 21 36 54
leaf_count=21 33 21 21 21 21 33 21 21 36 21 39 21 21 21 21 21 36 54
internal_value=8.988e-10 -1.29515 0.902679 1.37722 0.824519 -0.831954 -1.80045 0.803736 0.763533 0.831704 0.838137 -1.75854 0.811971 -0.773569 -0.772102 0.815097 -1.74874 0.815121
internal_weight=504 207 297 42 255 108 99 234 96 138 60 78 117 75 54 96 57 75
internal_count=504 207 297 42 255 108 99 234 96 138 60 78 117 75 54 96 57 75
is_linear=0
shrinkage=0.05


Tree=42
num_leaves=21
num_cat=0
split_feature=0 0 0 0 0 0 0 0 0 0 0 0 0 0 0 0 0 0 0 0
split_gain=212711 17490 3976.66 2278.88 443.036 302.054 233.144 105.365 379.9 30.0869 29.3934 7.34385 1.63121 0.322032 0.149719 0.0720565 0.000299061 6.51908e-05 6.41106e-07 1.81899e-11
threshold=463.50000000000006 630.50000000000011 61.500000000000007 30.500000000000004 92.500000000000014 582.50000000000011 663.50000000000011 222.50000000000003 252.50000000000003 191.50000000000003 129.50000000000003 695.50000000000011 418.50000000000006 281.50000000000006 553.50000000000011 161.50000000000003 523.50000000000011 729.50000000000011 316.50000000000006 348.50000000000006
decision_type=2 2 2 2 2 2 2 2 2 2 2 2 2 2 2 2 2 2 2 2
left_child=2 5 3 -1 -4 14 -3 9 -9 10 -6 -8 13 -10 16 -12 -2 -13 -15 -20
right_child=1 6 4 -5 7 -7 11 8 12 -11 15 17 -14 18 -16 -17 -18 -19 19 -21
leaf_value=0.94005434853690018 -0.73340344429016113 -1.858304278055827 1.003290591921125 1.6766613006591797 0.8394071442740304 -0.91641549630598595 -1.6958898271833147 0.54122507401875086 0.76746924945286343 0.86021435828435999 0.76902939251491009 -1.6613713128226146 0.75779650551932198 0.77437547274998264 -0.73847276142665319 0.76488737378801619 -0.7336448124476842 -1.6612604618072511 0.77436547960553859 0.77436542510986328
leaf_weight=21 33 21 21 21 21 33 21 21 21 21 21 21 21 21 21 21 21 36 21 45
leaf_count=21 33 21 21 21 21 33 21 21 21 21 21 21 21 21 21 21 21 36 21 45
internal_value=3.47694e-09 -1.23039 0.857545 1.30836 0.783293 -0.790356 -1.71043 0.76355 0.738442 0.808385 0.791108 -1.67061 0.770547 0.773026 -0.73489 0.766958 -0.733497 -1.6613 0.774368 0.774365
internal_weight=504 207 297 42 255 108 99 234 150 84 63 78 129 108 75 42 54 57 87 66
internal_count=504 207 297 42 255 108 99 234 150 84 63 78 129 108 75 42 54 57 87 66
is_linear=0
shrinkage=0.05


Tree=43
num_leaves=20
num_cat=0
split_feature=0 0 0 0 0 0 0 0 0 0 0 0 0 0 0 0 0 0 0
split_gain=191972 15838.1 3588.94 2056.69 555.366 399.84 201.993 97.8507 313.622 117.069 76.5256 137.219 21.5417 1.70955 0.617631 0.173917 1.14718e-05 5.34787e-06 1.03446e-08
threshold=463.50000000000006 617.50000000000011 61.500000000000007 30.500000000000004 649.50000000000011 92.500000000000014 681.50000000000011 239.50000000000003 187.50000000000003 268.50000000000006 586.50000000000011 558.00000000000011 129.50000000000003 418.50000000000006 712.50000000000011 527.50000000000011 302.50000000000006 749.50000000000011 336.50000000000006
decision_type=2 2 2 2 2 2 2 2 2 2 2 2 2 2 2 2 2 2 2
left_child=2 10 3 -1 -3 -4 -6 8 12 -9 11 15 -7 16 -8 -2 -11 -16 -18
right_child=1 4 5 -5 6 7 14 9 -10 13 -12 -13 -14 -15 17 -17 18 -19 -20
leaf_value=0.89305162656874892 -0.69673121770222979 -1.8183883031209309 0.95312598773411339 1.5928281784057619 -1.3968387603759767 0.79743677775065114 -1.5677975927080428 0.8610408442361015 0.56993577215406632 0.73568859781537743 -0.62734410876319524 -0.84413436026800248 0.73462456556466915 0.71990673428490048 -1.5781637872968401 -0.69100566591535306 0.73564584595816473 -1.5781983375549318 0.73564715385437018
leaf_weight=21 36 21 21 21 21 21 21 21 36 21 21 21 39 21 21 21 21 24 54
leaf_count=21 36 21 21 21 21 21 21 21 36 21 21 21 39 21 21 21 21 24 54
internal_value=1.04072e-09 -1.16887 0.814667 1.24294 -1.58761 0.744128 -1.5319 0.725372 0.686606 0.75234 -0.712066 -0.734875 0.756609 0.732829 -1.57488 -0.694622 0.735656 -1.57818 0.735647
internal_weight=504 207 297 42 108 255 87 234 96 138 99 78 60 117 66 57 96 45 75
internal_count=504 207 297 42 108 255 87 234 96 138 99 78 60 117 66 57 96 45 75
is_linear=0
shrinkage=0.05


Tree=44
num_leaves=20
num_cat=0
split_feature=0 0 0 0 0 0 0 0 0 0 0 0 0 0 0 0 0 0 0
split_gain=173303 15139.8 3092.16 1856.16 324.12 297.747 206.965 151.556 285.549 69.4118 82.3497 41.5233 29.6043 16.6253 0.0160147 0.0112788 3.76784e-05 1.0255e-05 8.94761e-09
threshold=447.00000000000006 630.50000000000011 61.500000000000007 30.500000000000004 92.500000000000014 582.50000000000011 678.00000000000011 239.50000000000003 210.50000000000003 268.50000000000006 414.50000000000006 129.50000000000003 502.50000000000006 178.50000000000003 553.50000000000011 708.50000000000011 744.50000000000011 302.50000000000006 336.50000000000006
decision_type=2 2 2 2 2 2 2 2 2 2 2 2 2 2 2 2 2 2 2
left_child=2 5 3 -1 -4 12 -3 8 11 -9 17 -6 -2 -13 -14 -8 -17 -11 -19
right_child=1 6 4 -5 7 -7 15 9 -10 10 -12 13 14 -15 -16 16 -18 18 -20
leaf_value=0.84839905557178319 -0.59208739144461497 -1.6562129688262939 0.90546973092215399 1.5131867408752442 0.7575649340947469 -0.82200060757723736 -1.4979384013584682 0.8179888214383807 0.48931071871802923 0.69890414646693644 0.80849653652736131 0.69683734286915178 -0.66217361688613896 0.63992787088666647 -0.66043618974231544 -1.4993779318673273 -1.49928863313463 0.69886356762477331 0.69886479377746591
leaf_weight=21 21 30 21 21 21 33 21 21 21 21 21 33 36 21 21 21 27 21 51
leaf_count=21 21 30 21 21 21 33 21 21 21 21 21 33 36 21 21 21 27 21 51
internal_value=1.51377e-09 -1.09704 0.783599 1.18079 0.7174 -0.696101 -1.54657 0.700303 0.652276 0.734455 0.719067 0.697906 -0.642836 0.674706 -0.661534 -1.4989 -1.49933 0.698873 0.698864
internal_weight=504 210 294 42 252 111 99 231 96 135 114 75 78 54 57 69 48 93 72
internal_count=504 210 294 42 252 111 99 231 96 135 114 75 78 54 57 69 48 93 72
is_linear=0
shrinkage=0.05


Tree=45
num_leaves=21
num_cat=0
split_feature=0 0 0 0 0 0 0 0 0 0 0 0 0 0 0 0 0 0 0 0
split_gain=156452 13021 2920.01 1675.18 521.151 324.822 323.449 101.971 324.592 41.558 21.1471 11.3165 6.04403 0.907591 0.719157 0.0101794 0.00994918 3.40018e-05 3.32406e-07 1.05501e-10
threshold=463.50000000000006 612.50000000000011 61.500000000000007 30.500000000000004 643.50000000000011 92.500000000000014 678.00000000000011 222.50000000000003 252.50000000000003 191.50000000000003 129.50000000000003 561.50000000000011 532.50000000000011 281.50000000000006 414.50000000000006 708.50000000000011 161.50000000000003 744.50000000000011 316.50000000000006 348.50000000000006
decision_type=2 2 2 2 2 2 2 2 2 2 2 2 2 2 2 2 2 2 2 2
left_child=2 11 3 -1 -3 -4 -6 9 -9 10 -7 12 -2 -10 18 -8 -12 -17 -15 -20
right_child=1 4 5 -5 6 7 15 8 13 -11 16 -13 -14 14 -16 17 -18 -19 19 -21
leaf_value=0.8059790020897275 -0.6304464083451492 -1.6482867785862514 0.86019624982561393 1.4375274658203125 -1.19985013235183 0.71968669295310983 -1.4230414663042341 0.44792043595086961 0.65038224628993446 0.75993796757289345 0.65900483812604638 -0.6066315478748745 -0.66371750377473382 0.66392885616847452 0.65410935282707217 -1.4244090352739607 0.65746573039463596 -1.4243242051866321 0.66392168317522327 0.66392154693603522
leaf_weight=21 39 21 21 21 21 21 21 21 21 21 21 36 21 21 24 21 21 27 21 42
leaf_count=21 39 21 21 21 21 21 21 21 21 21 21 36 21 21 24 21 21 27 21 42
internal_value=3.06302e-09 -1.05521 0.735449 1.12175 -1.424 0.671822 -1.37167 0.654917 0.630217 0.699024 0.678719 -0.628794 -0.642091 0.659893 0.661743 -1.42396 0.658235 -1.42436 0.663923 0.663922
internal_weight=504 207 297 42 111 255 90 234 150 84 63 96 60 129 108 69 42 48 84 63
internal_count=504 207 297 42 111 255 90 234 150 84 63 96 60 129 108 69 42 48 84 63
is_linear=0
shrinkage=0.05


Tree=46
num_leaves=19
num_cat=0
split_feature=0 0 0 0 0 0 0 0 0 0 0 0 0 0 0 0 0 0
split_gain=141319 12517.7 2512.86 1511.85 262.523 209.277 198.15 140.616 253.12 69.3074 74.9287 19.5947 15.4112 0.00918684 0.00664623 0.000698315 3.07108e-05 1.04974e-08
threshold=447.00000000000006 630.50000000000011 61.500000000000007 30.500000000000004 92.500000000000014 582.50000000000011 678.00000000000011 239.50000000000003 187.50000000000003 268.50000000000006 414.50000000000006 502.50000000000006 129.50000000000003 708.50000000000011 532.50000000000011 302.50000000000006 744.50000000000011 336.50000000000006
decision_type=2 2 2 2 2 2 2 2 2 2 2 2 2 2 2 2 2 2
left_child=2 5 3 -1 -4 11 -3 8 12 -9 15 -2 -6 -8 -13 -11 -15 -17
right_child=1 6 4 -5 7 -7 13 9 -10 10 -12 14 -14 16 -16 17 -18 -19
leaf_value=0.76568005766187408 -0.54013608296712234 -1.5066832383473716 0.81718639646257685 1.365651035308838 0.68370235079810737 -0.73162980224147001 -1.3518894195556641 0.74890871842702234 0.48146593980491165 0.63105278015136723 0.73536626270839145 -0.5973418780735561 0.63057449780977692 -1.3531886237008233 -0.59622260994381371 0.6307241507938931 -1.3531080034044054 0.63072547912597665
leaf_weight=21 21 30 21 21 21 33 21 21 36 21 21 21 39 21 36 21 27 51
leaf_count=21 21 30 21 21 21 33 21 21 36 21 21 21 39 21 36 21 27 51
internal_value=-2.54562e-09 -0.990647 0.707605 1.06567 0.647928 -0.62608 -1.3994 0.632541 0.586281 0.665438 0.650061 -0.581424 0.649169 -1.35276 -0.596635 0.630799 -1.35314 0.630725
internal_weight=504 210 294 42 252 111 99 231 96 135 114 78 60 69 57 93 48 72
internal_count=504 210 294 42 252 111 99 231 96 135 114 78 60 69 57 93 48 72
is_linear=0
shrinkage=0.05


Tree=47
num_leaves=19
num_cat=0
split_feature=0 0 0 0 0 0 0 0 0 0 0 0 0 0 0 0 0 0
split_gain=127540 11297.2 2267.86 1364.45 236.927 188.872 178.83 126.906 228.44 62.5499 67.6231 17.6842 13.9086 0.0082915 0.00599791 0.00063042 2.7666e-05 9.6552e-09
threshold=447.00000000000006 630.50000000000011 61.500000000000007 30.500000000000004 92.500000000000014 582.50000000000011 678.00000000000011 239.50000000000003 187.50000000000003 268.50000000000006 414.50000000000006 502.50000000000006 129.50000000000003 708.50000000000011 532.50000000000011 302.50000000000006 744.50000000000011 336.50000000000006
decision_type=2 2 2 2 2 2 2 2 2 2 2 2 2 2 2 2 2 2
left_child=2 5 3 -1 -4 11 -3 8 12 -9 15 -2 -6 -8 -13 -11 -15 -17
right_child=1 6 4 -5 7 -7 13 9 -10 10 -12 14 -14 16 -16 17 -18 -19
leaf_value=0.72739612034388956 -0.51312930243355892 -1.4313490708669028 0.7763271240960985 1.2973685264587402 0.64951724324907578 -0.69504830765001702 -1.2842949186052595 0.71146326859792075 0.45739266259802713 0.59950016566685271 0.69859792164393841 -0.5674747671399798 0.59904576815091648 -1.2855291502816337 -0.56641148991054957 0.59918791225978307 -1.2854526307847767 0.59918918609619143
leaf_weight=21 21 30 21 21 21 33 21 21 36 21 21 21 39 21 36 21 27 51
leaf_count=21 21 30 21 21 21 33 21 21 36 21 21 21 39 21 36 21 27 51
internal_value=2.73188e-09 -0.941115 0.672225 1.01238 0.615532 -0.594776 -1.32943 0.600914 0.556966 0.632166 0.617558 -0.552353 0.616711 -1.28512 -0.566803 0.599259 -1.28549 0.599189
internal_weight=504 210 294 42 252 111 99 231 96 135 114 78 60 69 57 93 48 72
internal_count=504 210 294 42 252 111 99 231 96 135 114 78 60 69 57 93 48 72
is_linear=0
shrinkage=0.05


Tree=48
num_leaves=21
num_cat=0
split_feature=0 0 0 0 0 0 0 0 0 0 0 0 0 0 0 0 0 0 0 0
split_gain=115137 9713.44 2141.84 1231.41 237.542 161.394 130.942 99.1215 282.962 54.1732 15.236 2.42623 0.424464 0.118045 0.00748258 0.00381505 0.00158712 2.50419e-05 8.0686e-07 2.03727e-10
threshold=463.50000000000006 630.50000000000011 61.500000000000007 30.500000000000004 92.500000000000014 678.00000000000011 582.50000000000011 222.50000000000003 252.50000000000003 191.50000000000003 129.50000000000003 281.50000000000006 506.50000000000006 414.50000000000006 708.50000000000011 535.50000000000011 161.50000000000003 744.50000000000011 316.50000000000006 348.50000000000006
decision_type=2 2 2 2 2 2 2 2 2 2 2 2 2 2 2 2 2 2 2 2
left_child=2 6 3 -1 -4 -3 12 9 -9 10 -6 -10 -2 18 -7 -14 -12 -16 -13 -20
right_child=1 5 4 -5 7 14 -8 8 11 -11 16 13 15 -15 17 -17 -18 -19 19 -21
leaf_value=0.69102631977626261 -0.54680935314723422 -1.3597816038131716 0.7375107628958566 1.2325000762939453 0.61704138574146095 -1.2200801985604424 -0.66029590259898796 0.36740619994345169 0.54976923806326727 0.67499815509432848 0.56457358087812159 0.56921849250793455 -0.53895868573869976 0.56525085965792343 -1.2212527411324638 -0.53809659986784963 0.56518830571855816 -1.2211799409654407 0.56922993659973142 0.56922974586486819
leaf_weight=21 21 30 21 21 21 21 33 21 21 21 21 21 21 24 21 33 21 27 21 42
leaf_count=21 21 30 21 21 21 21 33 21 21 21 21 21 21 24 21 33 21 27 21 42
internal_value=3.63068e-09 -0.905224 0.630914 0.961763 0.576421 -1.26296 -0.577297 0.561964 0.537612 0.60545 0.582268 0.56532 -0.540778 0.568343 -1.22087 -0.538432 0.564881 -1.22121 0.569227 0.56923
internal_weight=504 207 297 42 255 99 108 234 150 84 63 129 75 108 69 54 42 48 84 63
internal_count=504 207 297 42 255 99 108 234 150 84 63 129 75 108 69 54 42 48 84 63
is_linear=0
shrinkage=0.05


Tree=49
num_leaves=21
num_cat=0
split_feature=0 0 0 0 0 0 0 0 0 0 0 0 0 0 0 0 0 0 0 0
split_gain=104003 9265.79 1842.96 1111.35 650.828 355.217 191.889 118.342 204.536 62.6459 61.1653 13.7505 9.65579 18.4615 4.68309 0.00675315 0.00330619 0.00143228 2.2593e-05 5.2587e-09
threshold=447.00000000000006 612.50000000000011 61.500000000000007 30.500000000000004 643.50000000000011 678.00000000000011 92.500000000000014 239.50000000000003 191.50000000000003 268.50000000000006 414.50000000000006 129.50000000000003 502.50000000000006 561.50000000000011 532.50000000000011 708.50000000000011 302.50000000000006 161.50000000000003 744.50000000000011 336.50000000000006
decision_type=2 2 2 2 2 2 2 2 2 2 2 2 2 2 2 2 2 2 2 2
left_child=2 12 3 -1 -3 -6 -4 8 11 -9 16 -8 -2 14 -14 -7 -11 -13 -17 -18
right_child=1 4 6 -5 5 15 7 9 -10 10 -12 17 13 -15 -16 18 19 -19 -20 -21
leaf_value=0.65647505805605944 -0.46807563418433784 -1.414148621332078 0.70063522883823948 1.170875072479248 -0.92496694156101766 -1.1590761729649135 0.58618932224455333 0.65230942453656882 0.39949343330932385 0.54148098400660927 0.63540550640651161 0.53634491647992821 -0.512097031729562 -0.47999800311194529 -0.54548895245506646 -1.1601900918143135 0.54076730183192667 0.53692888532366068 -1.1601209428575305 0.5407682418823242
leaf_weight=21 21 21 21 21 21 21 21 21 33 21 21 21 21 36 21 21 21 21 27 51
leaf_count=21 21 21 21 21 21 21 21 21 33 21 21 21 21 36 21 21 21 21 27 51
internal_value=6.75283e-09 -0.849848 0.607034 0.913675 -1.16351 -1.10502 0.555928 0.542772 0.500333 0.572951 0.558333 0.553154 -0.49817 -0.506272 -0.528793 -1.15982 0.540929 0.536637 -1.16015 0.540768
internal_weight=504 210 294 42 111 90 252 231 96 135 114 63 99 78 42 69 93 42 48 72
internal_count=504 210 294 42 111 90 252 231 96 135 114 63 99 78 42 69 93 42 48 72
is_linear=0
shrinkage=0.05


Tree=50
num_leaves=21
num_cat=0
split_feature=0 0 0 0 0 0 0 0 0 0 0 0 0 0 0 0 0 0 0 0
split_gain=93862.5 8448.1 1663.27 1002.99 173.18 155.545 115.58 106.804 185.736 56.5379 55.2017 24.0477 10.3439 10.0993 0.00789288 0.00609487 0.00298374 2.03629e-05 5.1632e-09 2.72848e-12
threshold=447.00000000000006 630.50000000000011 61.500000000000007 30.500000000000004 92.500000000000014 678.00000000000011 582.50000000000011 239.50000000000003 210.50000000000003 268.50000000000006 414.50000000000006 178.50000000000003 502.50000000000006 129.50000000000003 532.50000000000011 708.50000000000011 302.50000000000006 744.50000000000011 336.50000000000006 374.50000000000006
decision_type=2 2 2 2 2 2 2 2 2 2 2 2 2 2 2 2 2 2 2 2
left_child=2 6 3 -1 -4 -3 12 8 11 -9 16 13 -2 -6 -14 -7 -11 -17 -18 -20
right_child=1 5 4 -5 7 15 -8 9 -10 10 -12 -13 14 -15 -16 17 18 -19 19 -21
leaf_value=0.62365123487654195 -0.44467188517252609 -1.2382064708073934 0.66560343333653049 1.1123312950134279 0.55687985874357682 -1.1011223793029785 -0.58629664363283096 0.61969395365033841 0.3438839117685954 0.51440693310328889 0.60363522938319614 0.4667172091347831 -0.48649217741830014 0.5125244877555154 -0.48527244594362051 -1.1021805899483819 0.51372891834803991 -1.1021149423387315 0.51372984051704407 0.51372985839843754
leaf_weight=21 21 30 21 21 21 21 33 21 21 21 21 21 21 33 36 21 21 27 24 27
leaf_count=21 21 30 21 21 21 21 33 21 21 21 21 21 21 33 36 21 21 27 24 27
internal_value=-1.11167e-09 -0.807356 0.576683 0.867991 0.528131 -1.14316 -0.507856 0.515634 0.475317 0.544304 0.530416 0.512118 -0.47467 0.529774 -0.485722 -1.10183 0.513883 -1.10214 0.51373 0.51373
internal_weight=504 210 294 42 252 99 111 231 96 135 114 75 78 54 57 69 93 48 72 51
internal_count=504 210 294 42 252 99 111 231 96 135 114 75 78 54 57 69 93 48 72 51
is_linear=0
shrinkage=0.05


Tree=51
num_leaves=21
num_cat=0
split_feature=0 0 0 0 0 0 0 0 0 0 0 0 0 0 0 0 0 0 0 0
split_gain=84734.1 7267.52 1570.99 905.202 190.713 261.998 336.787 243.386 140.379 78.0254 68.1982 4.33232 0.842172 0.156703 0.0755968 0.00550062 0.00517599 1.8401e-05 1.45743e-05 2.26464e-10
threshold=463.50000000000006 630.50000000000011 61.500000000000007 30.500000000000004 222.50000000000003 112.50000000000001 143.50000000000003 252.50000000000003 678.00000000000011 582.50000000000011 191.50000000000003 281.50000000000006 506.50000000000006 418.50000000000006 386.50000000000006 708.50000000000011 553.50000000000011 744.50000000000011 316.50000000000006 348.50000000000006
decision_type=2 2 2 2 2 2 2 2 2 2 2 2 2 2 2 2 2 2 2 2
left_child=2 9 3 -1 5 -4 -7 -6 -3 12 -8 -9 -2 14 18 -10 -14 -17 -13 -20
right_child=1 8 4 -5 7 6 10 11 15 -11 -12 13 16 -15 -16 17 -18 -19 19 -21
leaf_value=0.59246873514992859 -0.47321832520621165 -1.1762961546579997 0.42137327194213869 1.0567147254943847 0.30053931304386688 0.76611014207204187 0.48530771082097834 0.46331165177481515 -1.0460662433079311 -0.55698182077118852 0.60056984197525753 0.48799301556178504 -0.46102748350663625 0.49200831821986607 0.48458311898367745 -1.0470715659005303 -0.46203163010733467 -1.0470091607835559 0.48804358073643278 0.48804335594177251
leaf_weight=21 21 30 30 21 21 21 33 21 21 33 21 21 33 21 21 21 21 27 21 24
leaf_count=21 21 30 30 21 21 21 33 21 21 33 21 21 33 21 21 21 21 27 21 24
internal_value=4.73053e-09 -0.776563 0.541241 0.824592 0.494571 0.546254 0.596206 0.458394 -1.086 -0.492913 0.530132 0.484091 -0.464722 0.488132 0.487196 -1.04674 -0.461418 -1.04704 0.488027 0.488043
internal_weight=504 207 297 42 255 105 75 150 99 108 54 129 75 108 87 69 54 48 66 45
internal_count=504 207 297 42 255 105 75 150 99 108 54 129 75 108 87 69 54 48 66 45
is_linear=0
shrinkage=0.05


Tree=52
num_leaves=22
num_cat=0
split_feature=0 0 0 0 0 0 0 0 0 0 0 0 0 0 0 0 0 0 0 0 0
split_gain=76541.3 6900.35 1351.6 816.946 696.534 359.932 165.182 107.143 158.932 56.7433 49.4708 11.6213 13.6026 9.28634 4.26219 0.239637 0.00832371 0.00496455 0.000130756 1.65919e-05 1.91903e-10
threshold=447.00000000000006 612.50000000000011 61.500000000000007 30.500000000000004 643.50000000000011 678.00000000000011 92.500000000000014 239.50000000000003 191.50000000000003 268.50000000000006 414.50000000000006 561.50000000000011 502.50000000000006 129.50000000000003 532.50000000000011 161.50000000000003 302.50000000000006 708.50000000000011 381.50000000000006 744.50000000000011 336.50000000000006
decision_type=2 2 2 2 2 2 2 2 2 2 2 2 2 2 2 2 2 2 2 2 2
left_child=2 11 3 -1 -3 -6 -4 8 13 -9 16 12 -2 -8 -14 -15 -11 -7 20 -19 -18
right_child=1 4 6 -5 5 17 7 9 -10 10 -12 -13 14 15 -16 -17 18 19 -20 -21 -22
leaf_value=0.56284519831339519 -0.40567183721633193 -1.2590367635091146 0.61125462849934897 1.0038790702819824 -0.75799344834827243 -0.9937629290989467 0.49811756270272395 0.56903164500281933 0.33551783561706544 0.46481582777840758 0.548906067439488 -0.40291696389516196 -0.4390291213989258 0.45361885343279157 -0.47088516893840976 0.46117243085588727 0.46364136423383445 -0.99471799305507125 0.46378949029105049 -0.99465873506334102 0.46364116668701172
leaf_weight=21 21 21 21 21 21 21 21 21 33 21 21 36 21 21 21 21 21 21 21 27 30
leaf_count=21 21 21 21 21 21 21 21 21 33 21 21 36 21 21 21 21 21 21 21 27 30
internal_value=-1.08802e-09 -0.729066 0.520761 0.783362 -0.999743 -0.939242 0.476995 0.464789 0.424408 0.493504 0.479592 -0.425579 -0.438529 0.47097 -0.454957 0.457396 0.46394 -0.994404 0.463684 -0.994685 0.463641
internal_weight=504 210 294 42 111 90 252 231 96 135 114 99 63 63 42 42 93 69 72 48 51
internal_count=504 210 294 42 111 90 252 231 96 135 114 99 63 63 42 42 93 69 72 48 51
is_linear=0
shrinkage=0.05


Tree=53
num_leaves=20
num_cat=0
split_feature=0 0 0 0 0 0 0 0 0 0 0 0 0 0 0 0 0 0 0
split_gain=69078.6 6329.91 1219.82 737.293 149.076 135.71 96.6967 143.713 67.7519 51.2108 44.6474 6.62228 5.85439 0.0316483 0.00751218 0.00447979 0.000117974 1.49776e-05 1.92813e-10
threshold=447.00000000000006 630.50000000000011 61.500000000000007 30.500000000000004 92.500000000000014 678.00000000000011 239.50000000000003 187.50000000000003 582.50000000000011 268.50000000000006 414.50000000000006 129.50000000000003 502.50000000000006 553.50000000000011 302.50000000000006 708.50000000000011 381.50000000000006 744.50000000000011 336.50000000000006
decision_type=2 2 2 2 2 2 2 2 2 2 2 2 2 2 2 2 2 2 2
left_child=2 8 3 -1 -4 -3 7 11 12 -8 14 -6 -2 -14 -11 -7 18 -17 -16
right_child=1 5 4 -5 6 15 9 -9 -10 10 -12 -13 13 -15 16 17 -18 -19 -20
leaf_value=0.53470295497349329 -0.38538823808942524 -1.0720660169919334 0.5806919007074266 0.95368509292602544 0.4732116761661711 -0.94407482147216804 0.54058008421035042 0.32420946359634401 -0.49342106327866064 0.44157503673008514 0.52146079199654716 0.43838537289546092 -0.41537081003189091 -0.41781323637281154 0.4404593058994839 -0.94498206547328412 0.44060000010899136 -0.94492576387193472 0.44045910835266117
leaf_weight=21 21 30 21 21 21 21 21 36 33 21 21 39 36 21 21 21 21 27 30
leaf_count=21 21 30 21 21 21 21 21 36 33 21 21 39 36 21 21 21 21 27 30
internal_value=2.43622e-09 -0.692613 0.494723 0.744194 0.453145 -0.983285 0.44155 0.403188 -0.433365 0.468829 0.455612 0.450575 -0.407956 -0.416271 0.440743 -0.944684 0.4405 -0.94495 0.440459
internal_weight=504 210 294 42 252 99 231 96 111 135 114 60 78 57 93 69 72 48 51
internal_count=504 210 294 42 252 99 231 96 111 135 114 60 78 57 93 69 72 48 51
is_linear=0
shrinkage=0.05


Tree=54
num_leaves=22
num_cat=0
split_feature=0 0 0 0 0 0 0 0 0 0 0 0 0 0 0 0 0 0 0 0 0
split_gain=62360 5448.44 1165.51 273.166 527.349 123.316 85.3838 212.318 79.5385 62.2115 154.271 7.47563 6.42345 1.859 0.657875 0.505175 0.268225 0.126223 7.23787e-05 1.80884e-05 2.33822e-08
threshold=463.50000000000006 630.50000000000011 92.500000000000014 30.500000000000004 61.500000000000007 681.50000000000011 222.50000000000003 252.50000000000003 191.50000000000003 591.50000000000011 558.00000000000011 129.50000000000003 281.50000000000006 506.50000000000006 418.50000000000006 712.50000000000011 161.50000000000003 386.50000000000006 316.50000000000006 749.50000000000011 352.50000000000006
decision_type=2 2 2 2 2 2 2 2 2 2 2 2 2 2 2 2 2 2 2 2 2
left_child=2 9 3 -1 -5 -3 8 -8 11 10 13 -4 -9 -2 17 -7 -13 18 -14 -17 -20
right_child=1 5 6 4 -6 15 7 12 -10 -11 -12 16 14 -15 -16 19 -18 -19 20 -21 -22
leaf_value=0.50796785865511207 -0.40955197811126709 -1.0130383688392062 0.44955109840347651 0.90600080490112311 0.55165728160313199 -0.88825781685965399 0.24288560095287504 0.38902020454406738 0.5375549940835862 -0.35486658060992204 -0.54884599844614668 0.40901864256177634 0.41832288333347867 -0.3908328473567963 0.42718542189825154 -0.89761569159371524 0.41701007570539206 0.41394895144871308 0.41843636631965642 -0.89767923355102541 0.41843408175877167
leaf_weight=21 21 33 21 21 21 21 21 21 21 27 24 21 21 36 21 21 21 21 24 24 21
leaf_count=21 21 33 21 21 21 21 21 21 21 27 24 21 21 36 21 21 21 21 24 24 21
internal_value=3.07484e-09 -0.666194 0.464317 0.655209 0.728829 -0.93412 0.412923 0.390321 0.453284 -0.420595 -0.442505 0.425193 0.414323 -0.397729 0.419243 -0.894661 0.413014 0.417325 0.4184 -0.89765 0.418435
internal_weight=504 207 297 63 42 99 234 150 84 108 81 63 129 57 108 66 42 87 66 45 45
internal_count=504 207 297 63 42 99 234 150 84 108 81 63 129 57 108 66 42 87 66 45 45
is_linear=0
shrinkage=0.05


Tree=55
num_leaves=22
num_cat=0
split_feature=0 0 0 0 0 0 0 0 0 0 0 0 0 0 0 0 0 0 0 0 0
split_gain=56331.6 5166.36 991.217 741.335 600.53 360.572 120.773 90.7134 130.889 51.53 39.7392 15.9846 9.75709 6.74676 2.62833 0.242073 0.0166023 0.00961701 0.000628717 7.1574e-05 3.18232e-08
threshold=447.00000000000006 612.50000000000011 61.500000000000007 643.50000000000011 30.500000000000004 678.00000000000011 92.500000000000014 239.50000000000003 191.50000000000003 268.50000000000006 414.50000000000006 561.50000000000011 532.50000000000011 129.50000000000003 502.50000000000006 161.50000000000003 302.50000000000006 708.50000000000011 381.50000000000006 744.50000000000011 336.50000000000006
decision_type=2 2 2 2 2 2 2 2 2 2 2 2 2 2 2 2 2 2 2 2 2
left_child=2 11 4 -3 -1 -5 -4 8 13 -9 16 12 14 -8 -2 -15 -11 -7 20 -19 -18
right_child=1 3 6 5 -6 17 7 9 -10 10 -12 -13 -14 15 -16 -17 18 19 -20 -21 -22
leaf_value=0.48256945354597908 -0.35161792664300828 -1.1271672975449334 0.52407444999331521 -0.61583856514522006 0.86070079803466804 -0.85156690052577444 0.4270735510757992 0.49723152206057597 0.28101133722247501 0.39920805522373748 0.47412301472255164 -0.33627417153782319 -0.40586715993427092 0.38856770992279055 -0.37663376671927318 0.39615957396371027 0.39751694543021071 -0.85291900634765627 0.39784051690782823 -0.85279592937893334 0.39751440763473511
leaf_weight=21 21 21 21 21 21 21 21 21 33 21 21 36 21 21 21 21 21 21 21 27 30
leaf_count=21 21 21 21 21 21 21 21 21 33 21 21 36 21 21 21 21 21 21 21 27 30
internal_value=8.27842e-10 -0.625453 0.446752 -0.859665 0.671635 -0.797248 0.409272 0.398835 0.361679 0.425257 0.411999 -0.362852 -0.37804 0.403934 -0.364126 0.392364 0.397971 -0.852459 0.39761 -0.85285 0.397515
internal_weight=504 210 294 111 42 90 252 231 96 135 114 99 63 63 42 42 93 69 72 48 51
internal_count=504 210 294 111 42 90 252 231 96 135 114 99 63 63 42 42 93 69 72 48 51
is_linear=0
shrinkage=0.05


Tree=56
num_leaves=21
num_cat=0
split_feature=0 0 0 0 0 0 0 0 0 0 0 0 0 0 0 0 0 0 0 0
split_gain=50839.3 4752.81 894.573 541.979 124.471 521.441 120.22 119.46 82.6685 63.6904 172.053 46.5059 35.8647 7.74845 1.774 0.0149834 0.00867958 0.000567397 6.46512e-05 2.89042e-08
threshold=447.00000000000006 630.50000000000011 61.500000000000007 30.500000000000004 112.50000000000001 143.50000000000003 239.50000000000003 678.00000000000011 210.50000000000003 591.50000000000011 558.00000000000011 268.50000000000006 414.50000000000006 178.50000000000003 502.50000000000006 302.50000000000006 708.50000000000011 381.50000000000006 744.50000000000011 336.50000000000006
decision_type=2 2 2 2 2 2 2 2 2 2 2 2 2 2 2 2 2 2 2 2
left_child=2 9 3 -1 -4 -6 8 -3 13 10 14 -8 15 -7 -2 -13 -9 19 -18 -17
right_child=1 7 4 -5 5 6 11 16 -10 -11 -12 12 -14 -15 -16 17 18 -19 -20 -21
leaf_value=0.45844090808005566 -0.33403703144618446 -0.9293489231665929 0.29321656703948973 0.8176657676696778 0.63880046485435393 0.37928804755210876 0.47236995924086805 -0.80898853029523576 0.23973797843569802 -0.3027341365814209 -0.50415503879388168 0.37924764496939528 0.45041686466761999 0.33770002296992713 -0.35206222717578595 0.37764110905783521 -0.81027307510375979 0.37794849191393176 -0.81015610165066188 0.37763869047164916
leaf_weight=21 21 30 30 21 21 24 21 21 21 27 24 21 21 21 39 21 21 21 27 30
leaf_count=21 21 30 30 21 21 24 21 21 21 27 24 21 21 21 39 21 21 21 27 30
internal_value=2.03117e-09 -0.594181 0.424415 0.638053 0.388808 0.401726 0.376957 -0.846052 0.321653 -0.369538 -0.391011 0.403995 0.391399 0.35988 -0.345753 0.378073 -0.809836 0.37773 -0.810207 0.37764
internal_weight=504 210 294 42 252 222 201 99 66 111 84 135 114 45 60 93 69 72 48 51
internal_count=504 210 294 42 252 222 201 99 66 111 84 135 114 45 60 93 69 72 48 51
is_linear=0
shrinkage=0.05


Tree=57
num_leaves=22
num_cat=0
split_feature=0 0 0 0 0 0 0 0 0 0 0 0 0 0 0 0 0 0 0 0 0
split_gain=45894.5 4093.48 890.323 211.8 361.976 108.074 75.9645 183.341 91.4498 72.6667 127.39 8.56061 4.9527 2.19889 1.26769 0.784208 0.445174 0.178382 0.00022698 2.23639e-05 1.93136e-07
threshold=463.50000000000006 630.50000000000011 92.500000000000014 30.500000000000004 61.500000000000007 681.50000000000011 222.50000000000003 252.50000000000003 191.50000000000003 591.50000000000011 558.00000000000011 281.50000000000006 129.50000000000003 506.50000000000006 418.50000000000006 161.50000000000003 712.50000000000011 386.50000000000006 316.50000000000006 749.50000000000011 352.50000000000006
decision_type=2 2 2 2 2 2 2 2 2 2 2 2 2 2 2 2 2 2 2 2 2
left_child=2 9 3 -1 -5 -3 8 -8 12 10 13 -9 -4 -2 17 -14 -7 18 -13 -18 -20
right_child=1 5 6 4 -6 16 7 11 -10 -11 -12 14 15 -15 -16 -17 19 -19 20 -21 -22
leaf_value=0.43551891304197765 -0.35448420388357982 -0.87763003706932075 0.38118520691281277 0.77678246498107917 0.48320988700503398 -0.76079832485743937 0.19508560271490188 0.32518510477883478 0.48184085573468893 -0.28759743549205641 -0.47894727885723115 0.35855462210518974 0.34461395059313094 -0.33412557244300845 0.37110058012462799 0.35827836649758477 -0.76957703999110638 0.35339953558785575 0.35875676274299623 -0.76964769363403329 0.35875019686562676
leaf_weight=21 21 33 21 21 21 21 21 21 21 27 24 21 21 36 21 21 21 21 24 24 21
leaf_count=21 21 33 21 21 21 21 21 21 21 27 24 21 21 36 21 21 21 21 24 24 21
internal_value=9.10627e-10 -0.571516 0.398329 0.56517 0.629996 -0.80375 0.35341 0.332092 0.39148 -0.358635 -0.382314 0.354395 0.361359 -0.341626 0.360075 0.351446 -0.76681 0.357413 0.35869 -0.769615 0.358754
internal_weight=504 207 297 63 42 99 234 150 84 108 81 129 63 57 108 42 66 87 66 45 45
internal_count=504 207 297 63 42 99 234 150 84 108 81 129 63 57 108 42 66 87 66 45 45
is_linear=0
shrinkage=0.05


Tree=58
num_leaves=22
num_cat=0
split_feature=0 0 0 0 0 0 0 0 0 0 0 0 0 0 0 0 0 0 0 0 0
split_gain=41458.5 3894.51 785.201 757.166 358.881 191.149 326.684 82.9426 102.875 46.8875 31.705 20.4787 6.88869 4.46982 1.44579 0.707749 0.0286478 0.0145697 0.00161568 0.000148015 2.04389e-07
threshold=447.00000000000006 612.50000000000011 643.50000000000011 92.500000000000014 678.00000000000011 30.500000000000004 61.500000000000007 239.50000000000003 191.50000000000003 268.50000000000006 414.50000000000006 561.50000000000011 532.50000000000011 129.50000000000003 502.50000000000006 161.50000000000003 302.50000000000006 708.50000000000011 381.50000000000006 744.50000000000011 336.50000000000006
decision_type=2 2 2 2 2 2 2 2 2 2 2 2 2 2 2 2 2 2 2 2 2
left_child=3 11 -3 5 -4 -1 -7 8 13 -9 16 12 14 -5 -2 -15 -11 -6 20 -19 -18
right_child=1 2 4 7 17 6 -8 9 -10 10 -12 -13 -14 15 -16 -17 18 19 -20 -21 -22
leaf_value=0.41374294658501942 -0.30479371207101003 -1.0152213278270903 -0.49469769682203024 0.36212595474152343 -0.7296646867479597 0.73794331550598147 0.45904940196446015 0.43528005282084153 0.23431443590106388 0.34307260513305665 0.40946744850703648 -0.27848807308408946 -0.34914359932854061 0.32738324914659778 -0.32334727900368826 0.34036445277077809 0.34082555430276051 -0.73134326934814453 0.34134286812373571 -0.73116627799140088 0.34081912279129029
leaf_weight=21 21 21 21 21 21 21 21 21 33 21 21 36 21 21 21 21 21 21 21 27 30
leaf_count=21 21 21 21 21 21 21 21 21 33 21 21 36 21 21 21 21 21 21 21 27 30
internal_value=3.53016e-09 -0.536569 -0.739919 0.383264 -0.675681 0.536912 0.598496 0.34136 0.30583 0.366625 0.353978 -0.308571 -0.325762 0.343291 -0.31407 0.333874 0.341448 -0.730763 0.340974 -0.731244 0.340822
internal_weight=504 210 111 294 90 63 42 231 96 135 114 99 63 63 42 42 93 69 72 48 51
internal_count=504 210 111 294 90 63 42 231 96 135 114 99 63 63 42 42 93 69 72 48 51
is_linear=0
shrinkage=0.05


Tree=59
num_leaves=20
num_cat=0
split_feature=0 0 0 0 0 0 0 0 0 0 0 0 0 0 0 0 0 0 0
split_gain=37416.3 3576.61 683.343 172.512 294.832 105.349 74.8557 92.9555 73.8725 141.593 42.316 28.6137 3.0529 0.704343 0.0258548 0.0131494 0.00145818 0.000133552 1.85019e-07
threshold=447.00000000000006 630.50000000000011 92.500000000000014 30.500000000000004 61.500000000000007 678.00000000000011 239.50000000000003 187.50000000000003 591.50000000000011 558.00000000000011 268.50000000000006 414.50000000000006 129.50000000000003 502.50000000000006 302.50000000000006 708.50000000000011 381.50000000000006 744.50000000000011 336.50000000000006
decision_type=2 2 2 2 2 2 2 2 2 2 2 2 2 2 2 2 2 2 2
left_child=2 8 3 -1 -5 -3 7 12 9 13 -8 14 -4 -2 -12 -7 18 -17 -16
right_child=1 5 6 4 -6 15 10 -9 -10 -11 11 -13 -14 -15 16 17 -18 -19 -20
leaf_value=0.3930558326698485 -0.28955402601332891 -0.80645727276802059 0.34401966617220925 0.70104618072509772 0.43609689076741537 -0.69318144662039627 0.41351604688735244 0.22702100210719639 -0.24292129940456816 -0.44063392082850145 0.3259189776011876 0.38899406364985878 0.32037354432619536 -0.30091186303358813 0.32378427641732355 -0.69477610588073735 0.32427572522844589 -0.69460798369513621 0.3237781572341919
leaf_weight=21 21 30 21 21 21 21 21 36 27 24 21 21 39 39 21 21 21 27 30
leaf_count=21 21 30 21 21 21 21 21 36 27 24 21 21 39 39 21 21 21 27 30
internal_value=2.28248e-09 -0.509741 0.3641 0.510066 0.568572 -0.728235 0.324292 0.290539 -0.314867 -0.337993 0.348293 0.336279 0.32865 -0.296937 0.324375 -0.694225 0.323925 -0.694682 0.323781
internal_weight=504 210 294 63 42 99 231 96 111 84 135 114 60 60 93 69 72 48 51
internal_count=504 210 294 63 42 99 231 96 111 84 135 114 60 60 93 69 72 48 51
is_linear=0
shrinkage=0.05


Tree=60
num_leaves=21
num_cat=0
split_feature=0 0 0 0 0 0 0 0 0 0 0 0 0 0 0 0 0 0 0 0
split_gain=33777.1 3082.51 652.598 155.692 266.086 95.0775 80.5462 105.903 75.1225 160.689 98.0377 3.59125 2.39961 1.73605 0.709685 0.290795 0.0250933 0.0118676 0.000120531 1.53859e-06
threshold=463.50000000000006 630.50000000000011 92.500000000000014 30.500000000000004 61.500000000000007 678.00000000000011 591.50000000000011 558.00000000000011 222.50000000000003 268.50000000000006 191.50000000000003 129.50000000000003 506.50000000000006 418.50000000000006 161.50000000000003 386.50000000000006 302.50000000000006 708.50000000000011 744.50000000000011 352.50000000000006
decision_type=2 2 2 2 2 2 2 2 2 2 2 2 2 2 2 2 2 2 2 2
left_child=2 6 3 -1 -5 -3 7 12 10 -10 11 -4 -2 15 -13 16 -11 -7 -19 -18
right_child=1 5 8 4 -6 17 -8 -9 9 13 -12 14 -14 -15 -16 -17 19 18 -20 -21
leaf_value=0.37340304737999325 -0.30682894842965264 -0.76613440036773683 0.32681867054530556 0.665993881225586 0.41429208119710287 -0.65852237428937643 -0.23077525032891169 -0.41860222617785142 0.18462106386820476 0.30962302684783938 0.43468204225812646 0.29499540669577468 -0.28556142648061117 0.32257110504877001 0.30799435547419957 0.30149974822998049 0.30759284496307376 -0.66003731318882541 -0.65987759696112747 0.30757553236825125
leaf_weight=21 21 30 21 21 21 21 27 24 33 21 21 21 36 21 21 21 33 21 27 21
leaf_count=21 21 30 21 21 21 21 27 24 33 21 21 21 36 21 21 21 33 21 27 21
internal_value=1.60838e-09 -0.490297 0.341722 0.484563 0.540143 -0.691823 -0.305565 -0.330495 0.303265 0.282065 0.341123 0.309936 -0.293397 0.309549 0.301495 0.3067 0.308156 -0.659514 -0.659947 0.307586
internal_weight=504 207 297 63 42 99 108 81 234 150 84 63 57 117 42 96 75 69 48 54
internal_count=504 207 297 63 42 99 108 81 234 150 84 63 57 117 42 96 75 69 48 54
is_linear=0
shrinkage=0.05


Tree=61
num_leaves=22
num_cat=0
split_feature=0 0 0 0 0 0 0 0 0 0 0 0 0 0 0 0 0 0 0 0 0
split_gain=30512.7 2941.16 813.341 554.907 356.269 140.512 240.143 71.5211 87.2832 44.9498 25.2927 23.9743 4.8559 3.2411 0.762474 0.640491 0.019156 0.0107102 0.00318166 0.000108773 1.38497e-07
threshold=447.00000000000006 612.50000000000011 643.50000000000011 92.500000000000014 678.00000000000011 30.500000000000004 61.500000000000007 239.50000000000003 191.50000000000003 268.50000000000006 414.50000000000006 561.50000000000011 532.50000000000011 129.50000000000003 502.50000000000006 161.50000000000003 302.50000000000006 708.50000000000011 381.50000000000006 744.50000000000011 336.50000000000006
decision_type=2 2 2 2 2 2 2 2 2 2 2 2 2 2 2 2 2 2 2 2 2
left_child=3 11 -3 5 -4 -1 -7 8 13 -9 16 12 14 -5 -2 -15 -11 -6 20 -19 -18
right_child=1 2 4 7 17 6 -8 9 -10 10 -12 -13 -14 15 -16 -17 18 19 -20 -21 -22
